0.00269531 0.00125 0.00246094 0.00304688 0.00175781 0.00234375 0.00316406 0.00324219 0.000390625 0.00167969 3.90625e-05 0.00160156 0.00183594 0.0021875 0.00304688 0.00222656 0.000976563 0.000820312 0.00316406 0.00214844 0.00015625 0.00125 0.00335937 0.00167969 0.000976563 0.00300781 0.000820312 0.00375 0.00371094 0.00191406 0.000585937 0.00246094 0.00125 0.0034375 0.000351562 0.000859375 0.000976563 0.000351562 0.00304688 0.000820312 0.00296875 0.00367188 0.00265625 0.00125 0.00226562 0.00320313 0.00191406 0.00242187 0.00238281 0.00246094 0.00386719 7.8125e-05 0 0.000898438 0.000664063 0.00234375 0.00160156 0.00199219 0.00152344 0.00277344 0.00242187 0.00195313 0.00125 0.0009375 0.000742188 0.000742188 -0.207 -0.0764253 -0.14433 0.028543 -0.0580433 0.0892145 -0.0874222 -0.221922 0.154979 0.0389654 0.0641922 0.176031 0.206531 -0.034311 0.0890668 -0.164016 0.00869424 0.0163884 -0.107867 -0.00439542 -0.186127 -0.218862 -0.0539682 0.0752517 -0.0804982 -0.226592 0.129835 0.0907512 -0.146507 -0.096039 -0.0933728 0.0661013 -0.0497191 0.218107 -0.190507 -0.219194 -0.00311691 -0.0134198 -0.00675513 0.00826725 0.0697473 0.0610337 -0.199788 0.0254592 0.0091723 -0.0881647 0.0868838 -0.0554228 0.0291949 -0.070182 -0.204817 0.116885 -0.174973 -0.220383 -0.122798 0.191916 0.0364253 -0.0596392 0.161546 0.00936447 -0.213723 0.0914355 -0.0683494 0.176096 0.111999 0.0657026 -0.204967 -0.0765256 -0.139417 0.026192 -0.0581852 0.0887694 -0.0862948 -0.21817 0.15044 0.0409356 0.0635074 0.170857 0.203434 -0.0309918 0.0858386 -0.159043 0.00856025 0.0177536 -0.104894 -0.0020662 -0.182801 -0.216168 -0.0548044 0.0707879 -0.0790638 -0.224548 0.127954 0.0883812 -0.143211 -0.0950316 -0.0900618 0.0633361 -0.0505026 0.21449 -0.185848 -0.212606 -0.00312419 -0.0138752 -0.00781233 0.00722207 0.0673076 0.056718 -0.195861 0.023671 0.00644873 -0.0863556 0.0864312 -0.0559365 0.0288726 -0.0659438 -0.201424 0.112526 -0.170296 -0.215512 -0.117604 0.189877 0.0343467 -0.0595559 0.16087 0.00874354 -0.210976 0.0876177 -0.0691744 0.170932 0.110641 0.0667099 0.000526344 0.000811852 6.32802e-05 0.00289422 0.00112561 0.00278116 0.00117461 0.000780121 0.0048477 0.00112426 0.00085023 0.00387579 0.00393127 0.00273495 0.00464142 -0.000318609 0.00364121 0.000293998 0.00154111 0.00287836 -0.000373993 0.00166077 0.00291811 0.00123578 0.0015289 -0.00160827 0.00279602 0.00364594 0.00159377 0.000590047 0.00117651 0.00243729 0.000352688 0.00389815 0.000580299 0.00129572 0.00314818 0.000208169 0.0018372 0.000366338 0.00274329 0.000751609 -0.000732778 0.000913606 0.00282663 0.00214235 0.00151541 0.00178027 0.00234865 0.00194337 0.000588652 0.00290182 0.00188009 2.51097e-05 0.000254878 0.00523827 0.00225028 0.000505251 0.00184223 0.00159953 0.000149969 0.00454562 0.000139057 0.00426172 0.00325715 0.0019182 -0.0306705 -0.0923233 -0.0230169 -0.116219 0.0149755 -0.0681231 -0.118703 -0.0170934 -0.10118 0.0197484 -0.021717 -0.0823754 -0.138242 -0.116537 -0.025448 0.0335662 0.0240799 -0.059849 -0.0985318 0.0202658 -0.0392748 0.00441925 -0.0634947 -0.00845525 -0.0880314 0.00186875 -0.0465376 -0.05277 -0.0338477 -0.0424173 -0.102889 -0.0153069 0.00846875 -0.131476 -0.0279255 -0.0343713 0.0200933 0.00731867 0.0244676 -0.0029368 -0.0166471 -0.00631062 -0.0283557 -0.12247 0.00510742 -0.10641 -0.0352612 -0.0297901 -0.0147457 -0.112203 -0.0313366 -0.0281893 -0.0342688 -0.0359042 -0.0899695 -0.0391503 0.0115791 -0.0960777 -0.0940304 0.0062281 -0.023531 -0.0299787 -0.123806 -0.0584301 -0.0517972 -0.0712722 -0.0586398 -0.179831 -0.0465654 -0.225398 0.0238032 -0.135617 -0.227256 -0.0379458 -0.198365 0.031292 -0.042335 -0.162268 -0.268276 -0.227211 -0.0496147 0.0591106 0.042489 -0.118445 -0.190786 0.0372158 -0.0741212 0.00919808 -0.123393 -0.0163684 -0.167656 0.00513276 -0.093997 -0.101401 -0.0664875 -0.0799865 -0.196043 -0.0298316 0.013532 -0.258451 -0.055139 -0.0681784 0.039146 0.0137294 0.042776 -0.00817237 -0.0366102 -0.0163427 -0.0557994 -0.240813 0.00924747 -0.208135 -0.0715252 -0.0579384 -0.0310011 -0.222102 -0.0606512 -0.0530732 -0.0706539 -0.0684348 -0.175487 -0.078715 0.0256515 -0.188936 -0.184272 0.00858307 -0.0441035 -0.0595279 -0.236212 -0.111047 -0.105407 -0.137822 -0.127861 -0.284193 -0.125278 -0.322585 0.00666323 -0.179452 -0.358939 -0.100079 -0.272984 0.0593447 -0.0492172 -0.214306 -0.367645 -0.340737 -0.0572514 0.0546095 0.0719728 -0.167641 -0.31089 0.0632923 -0.151883 -0.0422703 -0.194903 -0.00494451 -0.268951 -0.0411211 -0.125034 -0.135964 -0.136693 -0.16482 -0.31463 -0.0326817 -0.0110948 -0.350602 -0.134618 -0.133663 0.067055 0.0129691 0.0692894 -0.00847016 -0.0394637 -0.012388 -0.124461 -0.348471 0.0196015 -0.332322 -0.0905298 -0.100735 -0.0417256 -0.344286 -0.13361 -0.0612133 -0.140244 -0.137725 -0.291546 -0.0983568 0.0434106 -0.294925 -0.252621 0.0139386 -0.109657 -0.0705269 -0.367899 -0.152089 -0.133944 -0.205998 -0.299475 -0.254939 -0.38831 -0.0981254 -0.168907 0.0316264 -0.316371 -0.317361 -0.0131773 0.107739 0.0692907 0.0375442 0.00349751 -0.199281 0.080768 -0.182969 0.0928685 -0.0366788 -0.312051 0.0660588 -0.306834 -0.360451 -0.173556 0.117907 -0.255227 -0.315533 0.00667232 0.0459781 -0.314815 -0.346373 -0.293404 0.0650374 -0.168022 -0.00248332 -0.367802 -0.274766 0.0784566 -0.0134386 0.0815148 0.0177001 0.0918362 0.0828872 -0.316621 -0.113967 0.0361694 -0.291031 0.0747207 -0.134156 0.0231928 -0.26853 -0.309992 0.0705719 -0.286693 -0.269346 -0.348086 0.0633401 0.0834583 -0.229735 0.00714227 0.0333967 -0.30384 0.0793733 -0.287275 0.0112768 0.056742 -0.0935675 -0.362896 -0.289249 -0.474737 -0.0746462 -0.200874 0.0730415 -0.352578 -0.388821 0.00872334 0.127036 0.0947025 0.0769146 0.0540455 -0.204511 0.105545 -0.222293 0.102751 -0.0212476 -0.347407 0.0685159 -0.367195 -0.452986 -0.19529 0.145857 -0.290697 -0.393998 0.0332799 0.0792212 -0.388472 -0.414376 -0.326388 0.088794 -0.188516 0.0476464 -0.457286 -0.328241 0.0865286 0.0179733 0.0842206 0.0233539 0.11684 0.101593 -0.387329 -0.0908255 0.039912 -0.320004 0.106866 -0.164197 0.0388752 -0.295252 -0.372548 0.0967152 -0.34711 -0.321214 -0.399385 0.0900815 0.0968642 -0.252085 0.0335494 0.0398348 -0.372538 0.10985 -0.310188 0.0201199 0.0910963 -0.0854102 -0.314863 -0.241023 -0.40488 -0.0547543 -0.178917 0.0614503 -0.296014 -0.335492 0.0198503 0.108093 0.0818878 0.0694638 0.0525764 -0.168679 0.093671 -0.199714 0.0870144 -0.0119017 -0.291261 0.0571121 -0.31424 -0.386814 -0.165522 0.127712 -0.242953 -0.339586 0.0315218 0.0669925 -0.333604 -0.3484 -0.274159 0.0759557 -0.177761 0.0453328 -0.391926 -0.284957 0.0699266 -0.00126797 0.0704941 0.0207325 0.102991 0.0869107 -0.331293 -0.0724915 0.0316969 -0.270354 0.0909163 -0.139434 0.0347166 -0.247483 -0.323451 0.0845757 -0.296011 -0.276265 -0.33941 0.0796386 0.0821714 -0.209941 0.0382844 0.032665 -0.320158 0.0944934 -0.259739 0.0287043 0.0785978 -0.0672817 0.00569993 0.0125519 0.0692349 0.0432044 0.062573 0.0032638 0.0352678 -0.00885188 -0.0223674 -0.0337334 -0.0307569 -0.0289527 -0.0263648 0.0302101 -0.0355302 0.0772555 -0.0615114 0.0165258 0.053262 -0.0434202 0.0144328 0.0373611 0.00284168 -0.0404041 0.0125318 0.0221346 0.0415975 -0.0150286 -0.0351082 0.087975 0.0361375 -0.0254511 0.0563979 -0.0249399 -0.0329917 0.0040552 -0.0603593 0.094329 -0.068177 -0.00783395 -0.0386447 -0.030489 0.0207943 0.0455583 -0.0163595 0.0572671 -0.0398604 -0.0126686 -0.00366067 0.0292665 0.00881759 -0.0291107 0.0102282 0.00430848 0.02709 -0.0234994 -0.024373 0.013104 -0.0242245 -0.0117859 -0.00695777 -0.036052 0.054606 -0.0526543 -0.0235224 0.0659642 0.00101563 0.00210938 0.00332031 0.00242187 0.00339844 0.000585937 0.000507813 0.00117187 0.00265625 0.000390625 0.000820312 0.000390625 0.00140625 0.00210938 0.00210938 0.00140625 0.00265625 0.000429688 0.00296875 0.000859375 0.00230469 0.00222656 0.00320313 3.90625e-05 0.00253906 0.00136719 0.00386719 3.90625e-05 0.00222656 0.00292969 0.00320313 0.00179688 0.00207031 0.000390625 0.0025 0.00160156 0.00183594 0.00117187 0.00140625 0.00164062 0.00332031 0.00289062 0.00273438 0.00191406 0.00328125 0.000546875 0.00125 0.00117187 0.00210938 0.00140625 0.00164062 0.00347656 0.000976563 0.00117187 0.00046875 0.000546875 0.000117187 0.00363281 0.00347656 0.00289062 0.00277344 0.00269531 0.00195313 0.00304688 0.0021875 0.00351563 0.0009375 0.00339844 0.000195313 0.000898438 0.00195313 0.00277344 0.00207031 0.00078125 0.00195313 0.000351562 0.00328125 0.000507813 0.000546875 0.00152344 0.000351562 0.00332031 0.000546875 0.00125 0.00113281 0.00128906 0.00140625 0.00328125 0.000117187 0.000546875 0.000117187 0.00015625 0.00335937 0 0 0.00175781 0.00269531 0.00183594 0.00363281 0.000195313 0.000195313 0.000507813 0.00339844 0.00308594 0.00140625 0.00335937 0.00339844 0.00179688 0.00339844 0.00191406 0.00015625 0.000390625 0.00316406 0 0.00121094 0.000703125 0.00230469 0.00253906 0.00214844 0.00238281 0.00246094 0.00132813 0.00359375 0.00121094 0.00316406 0.00210938 0.00207031 0.00242187 0.00226562 0.000195313 0.00113281 0.00101563 0.000429688 0.00164062 0.000703125 0.00171875 0.00382812 0.00148438 0.00355469 0.00316406 0.00386719 0.00265625 0.001875 0.00136719 0.00351563 0.00339844 0.00242187 0.00296875 0.000742188 0.0003125 0.00175781 0.00308594 0.000390625 0.0009375 0.0025 0.000742188 0.00328125 0.0003125 0.00296875 0.00378906 0.000976563 0.00230469 0.00269531 0.00304688 0.00121094 0.00140625 0.0021875 0.00207031 0.00386719 0.00207031 0.00132813 0.00101563 0.00277344 0.00292969 0.00371094 0.00320313 0.001875 0.00230469 0.00230469 0.00113281 0.00363281 0 0.000820312 0.00320313 0.000273438 0.00367188 0.00207031 0.00378906 7.8125e-05 0.00226562 0.00292969 0.000898438 0.0025 0.00152344 0.00078125 0.00316406 0.00363281 0.0015625 0.00203125 0.000234375 0.00261719 0.000273438 0.00300781 0.00339844 0.00277344 0.00351563 0.0003125 0.00140625 0.00152344 0.0025 0.00144531 0.00253906 0.00316406 0.00367188 0.000273438 0.0009375 0.003125 0.00210938 0.001875 0.00078125 0.00378906 0.00199219 0.00101563 0.00371094 0.00300781 0.00167969 0.00015625 0.0034375 0.000195313 0.000859375 0.000117187 0.001875 0.00371094 0.003125 0.0028125 7.8125e-05 0.000585937 0.0021875 0.000625 0.00203125 0.000273438 0.000820312 0.00128906 0.0025 0.00261719 0.00269531 3.90625e-05 0.00152344 0.00078125 0.00207031 0.0025 0.00144531 0.00296875 0.00222656 0.00335937 0.00300781 0.00355469 0.00171875 0.00269531 0.00164062 0.00234375 0.00253906 0.000351562 0.00257813 0.00285156 0.00339844 0.00242187 0.00132813 0.00136719 0.00136719 0.00242187 0.00152344 3.90625e-05 0.00203125 0.000234375 0.00136719 0.00328125 0.000742188 0.00015625 0.00273438 0.00339844 0.00167969 0.00277344 0.00371094 0.00105469 0.00117187 0.000585937 0.000546875 7.8125e-05 0.00179688 0.0009375 0.000625 0.00234375 0.000429688 0.000351562 0.00234375 0.00367188 0.00191406 0.000429688 0.00046875 0.00183594 0.00285156 0.00359375 0.000273438 0.00246094 0.00308594 0.00300781 0.00316406 0.000390625 0.00367188 0.00386719 0.00164062 0.00144531 0.00167969 0.00378906 0.00382812 0.00105469 0.000429688 0.00046875 0.0009375 0.00273438 0.0009375 0.00128906 0.00171875 0.00117187 0.000703125 0.00339844 0.000429688 0.00308594 0.000859375 0.000507813 0.000703125 0.00183594 0.000273438 0.00367188 0.000859375 0.00277344 0.00386719 0.00207031 0.00257813 0.000390625 0.00375 0.00015625 0.00210938 0.00226562 0.00183594 0.00371094 0.00320313 0.00226562 0.00375 0.00210938 0.00304688 0.00214844 0.00109375 0.00308594 0.0034375 0.00292969 0.00246094 0 0.00289062 0.000703125 0.00382812 0.000507813 0.00148438 0.00183594 0.00347656 0.00378906 0.00078125 0.00386719 0.0003125 0.00136719 0.00339844 0.00253906 0.000429688 0.00167969 0.00335937 0.000234375 0.000507813 0.000351562 0.00296875 0.00238281 0.00378906 0.0021875 0.000664063 0.00316406 0.00140625 0.00308594 0.0003125 0.00316406 0.00304688 0.00171875 0.00191406 0.00128906 0.00285156 0.00195313 0.001875 -0.0371396 -0.0109156 -0.0265348 0.00812063 -0.00913195 0.0163692 -0.0136745 -0.0379528 0.0306865 0.00761774 0.0151446 0.0358795 0.0381887 -0.00491002 0.0173562 -0.0277815 0.00175428 0.0047379 -0.0175283 0.00281498 -0.0345809 -0.0385323 -0.00814758 0.014025 -0.0118997 -0.041993 0.0272013 0.0196051 -0.0244566 -0.0179431 -0.0154127 0.0122691 -0.00786756 0.0431542 -0.0329672 -0.0403518 -0.000345215 -0.000439557 -0.000325759 0.00133805 0.013132 0.0108377 -0.0372094 0.00490079 0.00355138 -0.0146756 0.0161244 -0.0100083 0.00771762 -0.0127781 -0.0381084 0.0231983 -0.0291339 -0.0405399 -0.0190914 0.0367204 0.0086307 -0.00946658 0.0303438 0.00175516 -0.0377069 0.0168962 -0.0128134 0.0341035 0.0220841 0.0135419 -0.139347 -0.0298388 -0.0600972 0.109144 0.0210087 0.0657221 0.0227919 -0.187188 0.185969 -0.105672 -0.0461339 0.16661 0.223005 0.041434 -0.0144177 -0.0176148 -0.168767 0.030231 0.00900908 -0.147083 -0.118105 -0.097909 -0.0502831 -0.0461065 -0.0368749 -0.0643193 0.224163 0.0367683 -0.195879 0.0414676 0.00277069 -0.0281304 0.137709 0.239609 -0.232693 -0.053192 -0.172606 0.369877 -0.194574 -0.0427834 -0.0634386 -0.0657542 -0.111254 0.119636 -0.0676466 0.0382994 -0.014386 -0.0892861 -0.0106355 0.0136375 -0.142064 0.0715176 -0.109219 -0.0422921 -0.0262685 0.21096 -0.0754272 -0.0119461 0.143517 -0.0544175 -0.159955 -0.0103118 0.0653883 0.227298 0.0536848 0.220968 -0.326271 -0.223683 -0.350327 -0.142277 -0.370815 0.0872971 -0.323643 -0.314111 0.210213 0.228676 0.19437 0.210138 0.137992 -0.223325 0.210449 -0.358563 0.188549 -0.0294631 -0.346007 0.150001 -0.32318 -0.316981 -0.126475 0.246031 -0.215374 -0.295899 0.130932 0.139731 -0.171683 -0.355167 -0.300836 0.185887 -0.270965 0.164716 -0.233243 -0.320074 0.16184 -0.189552 0.163591 0.0871187 0.219891 0.211745 -0.337288 -0.164881 0.116953 -0.33611 0.21013 -0.0528381 0.0952885 -0.266358 -0.332313 0.297525 -0.276679 -0.31911 -0.319408 0.323731 0.195414 -0.205204 0.234274 0.112134 -0.298193 0.217513 -0.335234 0.333841 0.197694 -0.00670832 -0.365427 -0.253169 -0.317648 -0.253702 -0.521306 0.0204679 -0.36851 -0.317619 0.125166 0.249272 0.186516 0.0826651 -0.0222492 -0.30537 0.187079 -0.31128 0.252341 -0.0728225 -0.436582 0.206465 -0.361666 -0.308659 -0.1405 0.233428 -0.241846 -0.338068 0.0319442 0.0875006 -0.120951 -0.371001 -0.35344 0.174122 -0.453419 0.0138223 -0.174967 -0.431395 0.227098 -0.456351 0.242377 0.0938168 0.218888 0.218857 -0.370935 -0.281261 0.1341 -0.4409 0.18184 -0.0391392 0.0778893 -0.322349 -0.373542 0.237112 -0.304469 -0.442903 -0.332393 0.202798 0.209132 -0.249145 0.126211 0.124469 -0.313106 0.185932 -0.450554 0.283654 0.140005 -0.144134 0.0723902 0.153648 0.560901 0.0531995 0.18844 -0.232501 0.277173 0.0620678 -0.137894 -0.269444 -0.320415 -0.392667 -0.440786 0.117567 -0.338335 0.506026 -0.330487 -0.0406665 0.329755 -0.238506 0.133341 0.400105 0.0668548 -0.337502 0.152529 0.249547 0.0473783 -0.29591 0.126208 0.585466 0.264238 -0.262003 0.224413 -0.41807 0.192583 0.00326641 -0.310605 0.300576 -0.361489 -0.0929529 -0.363612 -0.309946 0.189099 0.0755607 -0.116968 0.317515 -0.382078 0.026575 -0.119485 0.191426 0.0935947 -0.334927 0.141398 -0.0207319 0.311037 -0.316007 -0.213287 0.116288 -0.212135 -0.111364 0.0407787 -0.362646 0.300226 -0.145404 -0.340379 0.247918 -0.840096 -0.53728 -0.985909 -0.351919 -0.87249 -0.040077 -0.739303 -0.822643 0.134876 0.201156 0.0858815 0.0263444 -0.0504886 -0.502453 0.136632 -0.689241 0.263321 -0.186092 -0.800206 0.19905 -0.838202 -0.926449 -0.341324 0.272731 -0.524067 -0.863199 -0.107098 -0.00266139 -0.487075 -0.943072 -0.692941 0.077161 -0.758357 -0.146483 -0.580316 -0.840212 0.252037 -0.414541 0.259767 -0.00770918 0.160401 0.105892 -0.875093 -0.388613 0.0642229 -0.763688 0.126306 -0.228709 -0.0584525 -0.617481 -0.859224 0.0705354 -0.748329 -0.839077 -0.772479 0.0657227 0.132098 -0.48499 0.105056 0.0292581 -0.797347 0.14918 -0.738615 0.368818 0.0471229 -0.285812 -0.362912 -0.207018 -0.470123 -0.21016 -0.535789 -0.114134 -0.311649 -0.351677 -0.0169778 -0.060958 -0.123184 -0.112772 -0.125543 -0.223393 -0.074128 -0.388213 0.0339918 -0.173104 -0.344265 0.0265957 -0.363213 -0.390947 -0.132395 0.0190719 -0.199225 -0.346423 -0.151495 -0.142694 -0.14036 -0.458899 -0.291919 -0.124623 -0.409937 -0.28354 -0.152631 -0.335155 0.0509706 -0.210018 0.0505092 -0.0997517 -0.0632818 -0.13242 -0.379111 -0.222161 -0.0564201 -0.330336 -0.0748077 -0.0916782 -0.170716 -0.255944 -0.373676 -0.1409 -0.32423 -0.331294 -0.319176 -0.147443 -0.0891275 -0.187585 -0.0690811 -0.0885154 -0.334409 -0.0592381 -0.322358 0.148591 -0.100173 -0.146048 -0.156866 -0.13156 -0.23111 -0.2372 -0.262556 -0.349784 -0.186256 -0.139275 -0.188691 -0.169435 -0.297421 -0.384466 -0.455103 -0.187349 -0.258598 -0.0842245 0.0406728 -0.21767 -0.171755 0.0151982 -0.164293 -0.142097 -0.099416 -0.139332 -0.121192 -0.118728 -0.405304 -0.344257 0.000254524 -0.233028 -0.166065 -0.257164 -0.177685 -0.505484 0.0283752 -0.13151 0.0613266 -0.10227 0.0863116 -0.151439 -0.264311 -0.281044 -0.162804 -0.240629 -0.111269 -0.171449 -0.291126 -0.0598077 -0.236697 -0.174844 -0.168114 -0.369648 -0.135389 -0.124654 -0.162641 -0.415517 -0.184045 -0.134685 -0.243186 -0.145968 -0.128202 -0.25626 -0.173377 -0.082115 -0.330705 -0.297353 -0.418149 -0.0686916 -0.384603 -0.0370185 -0.543215 -0.106377 -0.150225 -0.428201 0.249311 0.0270888 -0.049238 0.0124946 -0.0273803 -0.0511197 0.00578222 -0.321327 0.0944628 -0.0472601 -0.201582 0.0469344 -0.369144 -0.459038 -0.0301173 0.118484 -0.0712727 -0.463364 -0.100897 -0.0802687 -0.0841203 -0.334392 -0.145238 -0.0210598 -0.520135 -0.0778786 -0.133035 -0.449704 0.0690617 -0.261137 0.0708725 -0.0223582 -0.01553 -0.0394158 -0.422508 -0.038212 0.0123955 -0.175808 -0.0139727 -0.0233448 -0.0676867 -0.0830725 -0.418723 -0.0681527 -0.306904 -0.456712 -0.191272 0.0164459 -0.00692336 -0.043216 0.189331 -0.0194385 -0.403052 0.0182055 -0.15137 0.274092 -0.0632339 -0.026219 -0.0265097 0.167303 0.349236 0.22524 0.045338 -0.0644681 0.263013 -0.0843542 0.0996122 -0.168731 -0.193191 -0.162915 -0.156899 0.227497 -0.189764 0.212239 -0.235087 0.0691171 0.317784 -0.179837 0.0543773 0.130225 0.0919899 -0.165505 0.151251 0.0395052 0.132236 -0.133268 0.000285367 0.441599 0.24856 -0.147126 0.0553535 -0.172104 0.0221329 -0.0422739 -0.23562 0.298552 -0.283799 -0.0380029 -0.22495 -0.196533 0.0686987 0.256116 -0.0611032 0.333584 -0.219404 0.01544 -0.0460262 0.229963 -0.00359032 -0.205736 0.0555304 -0.0589 0.221925 -0.150663 -0.135356 0.163119 0.0520453 -0.0592748 -0.0801069 -0.200991 0.342036 0.0417995 -0.178201 0.339794 0.00101563 0.00222656 7.8125e-05 0.000117187 0.00324219 0.00179688 0.000117187 0.00136719 0.00277344 0.00140625 0.00140625 0.000351562 0.003125 0.00113281 0.00152344 0.00304688 0.00203125 0.0025 0.00113281 0.00078125 0.00304688 0 0.00246094 0.00078125 0.00210938 0.00203125 0.00363281 7.8125e-05 0.00300781 0.00222656 0.00179688 0.00105469 0.0009375 0.00261719 0.00109375 0.00324219 0.000429688 0.00160156 0.00136719 0.00160156 0.00300781 0.000625 0.000273438 0.00246094 0.00132813 0.000390625 0.00371094 0.00375 0.00207031 0.0009375 0.00246094 0.00160156 0.00203125 0.0015625 0.00132813 0.00199219 0.0028125 0.00121094 0.0034375 0.000703125 0.000351562 0.000703125 0.00101563 0.00121094 0.00101563 0.00273438 0.001875 0.00320313 0.00285156 0.00242187 0.00269531 0.0021875 0.00335937 0.0021875 0.000351562 0.00132813 0.0003125 0.000625 0.00121094 0.00238281 0.00324219 0.003125 0.000429688 0.00269531 0.00234375 0.00214844 0.00371094 0.00136719 0.00210938 0 0.00199219 0.00078125 0.00210938 0.00289062 0.00253906 0.00351563 0.00257813 0.00101563 0.00191406 0.00253906 0.00113281 0.00328125 0.000429688 0.000703125 0.00226562 0.00226562 0.00214844 0.00167969 0.000195313 0.00363281 0.00363281 0.00125 0.00367188 0.000351562 0.0028125 0 0.00148438 0.00230469 0.000859375 0.000117187 0.00105469 0.00253906 0.00226562 0.00148438 0.000117187 0.00132813 0.00117187 0.00261719 0.000390625 0.00226562 0.00296875 0.00105469 0.00230469 0.00125 0.000234375 0.00210938 0.00347656 0.00246094 0.00191406 0.00253906 0.000429688 0.00304688 0.00242187 0.00300781 0.00386719 0.000898438 0.00257813 0.00230469 7.8125e-05 0.000976563 0 0.00386719 0.00195313 0.00125 0.0015625 0.00273438 0.00140625 0.00101563 0.000898438 0.00277344 0.0009375 0.00265625 0.00109375 0.00222656 0.00339844 0.00210938 0.00160156 0.00363281 0.00152344 0.00324219 0.000703125 0.000507813 0.00238281 0.00355469 0.00265625 0.000507813 0.001875 0.00273438 0.00164062 0.00378906 0.0021875 0.000195313 0.000664063 0.00171875 0.00207031 0.00199219 0.00210938 0.00136719 0.000351562 0.00253906 0.00359375 0.00347656 0.00277344 0.000703125 0.00382812 3.90625e-05 0.000820312 0.00320313 0.000390625 0.000507813 0.00144531 0.00113281 0.00320313 0.00335937 0.00277344 0.00167969 0.00292969 0.00121094 0.000703125 3.90625e-05 0.00015625 0.00121094 0.003125 0.00308594 0.0028125 0.000195313 0.00105469 0.00125 0.00183594 0.000703125 0.00382812 0.000820312 0.00226562 0.00332031 0.00183594 0.000507813 3.90625e-05 0.000390625 0.000859375 0.00265625 0.00175781 0.00144531 0.00144531 0.00199219 0.00320313 0.000625 0.000195313 0.00109375 0.00355469 0.00015625 0.000976563 0.000234375 0.000429688 0.00121094 0.00164062 0.000273438 0.00132813 0.00367188 0.0025 0.00109375 0.0021875 0.00117187 0.00230469 0.001875 0.000507813 0.0028125 0.001875 0.00363281 0.000390625 0.000664063 0.00234375 0.00199219 0.000898438 0.00378906 0.00125 0.000117187 0.00335937 0.00246094 0.00308594 0.00234375 0.00246094 0.000390625 0.00304688 0.00292969 0.000625 0.000273438 0.00214844 0.00015625 0.00195313 0.00121094 0.00203125 0.00101563 0.000507813 0.000429688 0.0025 0.00214844 0.00359375 0.00269531 0.00253906 7.8125e-05 0.00222656 0.00109375 0.0009375 0.000976563 0.00359375 0.00289062 0.00183594 0.00289062 0.000664063 0.003125 0.00226562 0.0003125 0.00308594 0.000585937 0.00214844 3.90625e-05 0.00367188 0.00339844 0.00191406 0.00152344 0.00285156 0.000820312 0.000585937 0.00203125 0.00128906 0.00238281 0.00269531 0.00132813 0.0028125 0.00296875 0.00375 0.000585937 0.00363281 7.8125e-05 0.00339844 0.00125 0.00167969 0.000898438 0 0.0021875 0.0021875 0.00320313 0.00203125 0.00359375 0.00265625 0.00214844 0.00382812 0.00328125 0.000390625 0.00378906 0.00273438 0.00140625 0.00101563 0.000273438 0.00160156 0.00125 0.00234375 0.00175781 0.000390625 3.90625e-05 0.00125 0.00144531 0.00378906 0.000664063 0.00386719 0.00121094 0.00386719 0.000195313 0.00144531 0.00046875 0.00316406 0.00175781 0.00292969 0.000546875 0.000859375 0.000742188 0.00132813 0.00046875 0.000546875 0.0021875 0.0009375 0.00230469 0.00046875 0.00261719 0.000546875 0.00179688 0.00195313 0.00121094 0.00375 0.000703125 0.0003125 0.000898438 0.00378906 0.00160156 0.00101563 0.00109375 0.00164062 0.00265625 0.00257813 0.00109375 0.000507813 0.00210938 0.000351562 0.00015625 0 0.00304688 -0.00305026 0.00655671 -0.00425432 0.00541824 -0.0190747 0.00581413 0.00483198 -0.00556933 0.0236126 0.0050463 0.00694733 0.0166826 0.0204287 0.00847408 0.0110822 -0.0110474 0.00370856 0.00612626 0.0012556 0.00277916 -0.00256857 -0.00913964 0.00710493 0.00922934 0.00688371 -0.00744101 0.00772719 0.00831097 0.00032597 -0.00606929 0.00226535 0.00925014 -0.0203162 0.0188245 -0.00158462 -0.00716214 0.00157149 -0.013635 -7.38673e-05 0.00483796 0.00825146 0.00741371 -0.00599988 0.00485539 0.00436887 0.00119318 0.0123374 0.00388909 0.0038221 0.00516117 -0.00330974 0.0135852 -0.000707473 -0.00515623 0.0033084 0.0165904 0.00359927 0.00809096 0.0178931 0.00198955 -0.00275426 0.0114037 -8.33369e-05 0.0214027 0.009459 0.00682836 -0.46209 -0.052779 -0.562583 0.120036 -0.983938 0.368451 -0.140057 -0.467704 0.859188 0.311856 0.396558 0.590421 0.667442 0.0127014 0.427752 -0.754311 0.174014 0.131822 -0.288687 0.114518 -0.42948 -0.564993 -0.00467198 0.432108 -0.0624061 -0.525206 0.386276 0.394058 -0.163399 -0.564213 -0.160915 0.349977 -0.662313 0.69904 -0.282111 -0.476114 0.120072 -0.459877 0.116003 0.135707 0.439628 0.38632 -0.499788 0.106744 0.147772 -0.255522 0.469619 0.00235108 0.195972 -0.0516546 -0.473295 0.583431 -0.357497 -0.475438 -0.22195 0.628431 0.261925 -0.0132088 0.718423 0.146973 -0.43701 0.454651 -0.197497 1.01595 0.500786 0.241016 -0.348263 -0.130654 -0.0988171 0.187288 0.11872 0.52326 -0.0953738 -0.497041 0.537719 0.190702 0.384597 0.495165 0.581866 0.00617268 0.3444 -0.376896 -0.218622 0.158935 -0.203442 -0.192138 -0.313202 -0.139733 -0.100167 0.236678 -0.148824 -0.0832507 0.865605 0.473199 -0.453296 -0.0292027 -0.132424 0.338055 0.419971 0.776843 -0.568233 -0.184475 -0.304278 0.354873 -0.392951 0.110356 0.355123 0.364583 -0.184815 0.18273 0.0802523 -0.150949 0.378794 -0.112788 0.231912 -0.0703013 -0.336531 0.677551 -0.412199 -0.176132 -0.214717 0.660233 0.189562 -0.099197 0.732602 0.106024 -0.488192 0.331773 -0.0947319 0.159847 0.555029 0.672481 0.17473 0.135418 0.372102 -0.0643423 0.0314012 -0.33099 0.281898 0.122267 -0.273427 -0.402114 -0.42079 -0.559235 -0.520816 0.0756375 -0.447459 0.267574 -0.299528 -0.12516 0.171981 -0.258266 0.184931 0.408854 0.0252849 -0.474663 0.131513 0.419038 -0.19004 -0.363162 0.0791847 0.367001 0.204575 -0.364191 0.0346007 -0.402985 0.15812 0.27008 -0.285386 -0.279253 -0.275258 -0.174492 -0.476837 -0.418612 0.314521 -0.0439847 -0.197223 0.170301 -0.493474 -0.0147103 -0.208404 0.1868 0.182813 -0.508904 0.120081 0.277001 0.28783 -0.559022 -0.328063 0.0957266 -0.291452 -0.195097 0.133525 -0.486387 0.182216 -0.502503 -0.439571 -0.0394285 -0.504013 0.189297 -0.258993 -0.0736834 -0.312779 -0.477772 0.218784 -0.422263 0.216721 -0.202657 -0.407679 -0.55417 -0.5457 0.10225 -0.33449 -0.27078 0.196132 -0.137989 0.0896331 0.126324 -0.394674 -0.361245 0.112501 -0.17394 0.192511 -0.401992 -0.508616 -0.459163 0.302986 -0.111275 0.179068 -0.316988 -0.154597 -0.479775 0.349513 -0.603911 0.230857 -0.208783 0.317267 -0.115991 -0.362355 -0.378407 -0.462772 -0.0474532 -0.0708949 0.123852 -0.395606 0.105932 -0.244768 0.196982 -0.506569 -0.533839 -0.21353 -0.626227 0.227519 -0.626782 -0.206833 0.157379 0.0345353 -0.119113 -0.393359 -0.342247 0.183458 0.339416 -0.440203 -0.2194 -1.00691 -0.509138 -0.715581 -0.623228 0.208739 -0.410616 -0.590607 -0.892354 -0.488032 -0.137236 -0.354469 -0.691716 -0.857005 -0.600551 -0.300975 -0.32013 0.0589387 -0.45913 -0.652214 0.0609227 -0.939559 -0.596303 -0.395639 -0.167539 -0.480292 -0.671036 -0.396771 -0.467557 -0.351758 -0.628056 -0.543916 -0.352355 0.342423 -0.975073 -0.334673 -1.09298 0.135423 0.40332 0.161535 -0.241112 -0.225939 -0.314918 -0.938731 -0.653475 -0.167644 -0.622962 -0.332475 -0.294063 -0.371778 -0.586898 -1.02263 -0.303297 -0.735639 -1.11874 -0.536945 -0.577644 -0.195548 -0.521086 -0.520085 -0.204502 -0.86272 -0.318626 -0.609055 -0.238775 -0.287407 -0.443562 0.000912131 -0.0597535 0.0484308 -0.263582 1.2827 -0.13014 0.0430705 0.000872906 -1.34709 -0.618899 -0.490273 -0.611029 -0.772208 -0.140625 -0.488818 0.735336 -0.590234 -0.296223 0.124242 -0.449405 0.00974909 0.291486 -0.0922319 -0.511428 -0.0346779 0.341906 0.0821351 -0.373451 -0.066627 0.0814241 0.0582514 -0.547952 1.42094 -0.995333 0.034874 0.133443 -0.505253 1.72658 -0.558195 -0.324138 -0.426892 -0.570512 0.0759379 -0.246134 -0.351404 0.104236 -0.435424 -0.130643 -0.416337 -0.0877271 -0.011016 -0.212196 0.0155134 0.147779 0.138 -0.485504 -0.550456 -0.10048 -1.33596 -0.351885 0.0128031 -0.480254 0.0571522 -1.28957 -0.181163 0.0855216 -0.334475 -0.033532 -0.286457 -0.13407 0.263012 0.137282 -0.0119223 -0.37898 -0.186872 -0.162258 -0.0649402 -0.0766097 -0.142699 -0.0538385 -0.0173275 -0.28121 0.032703 -0.124129 -0.0612487 -0.0148215 -0.293498 -0.184621 -0.0209876 -0.0276833 -0.0236939 -0.157626 0.100663 0.00534002 -0.156005 -0.299601 -0.0225418 -0.120282 0.453322 -0.198695 -0.224779 -0.288883 0.0370669 0.686629 0.0784406 -0.115599 0.0283004 -0.111879 -0.263668 -0.12789 -0.0974582 -0.0453495 0.0392348 -0.0208575 -0.176695 -0.0435863 -0.338748 0.295394 -0.300306 -0.289578 -0.0301646 -0.0256375 -0.177001 -0.0298232 -0.252563 -0.124607 -0.36858 -0.00329774 -0.0264706 -0.370057 0.316825 -0.171516 -0.348572 0.278076 0.0534589 0.253548 0.211451 -0.158403 0.336227 -0.403796 0.24542 -0.205707 -0.245285 -0.254225 -0.217296 0.32151 -0.185639 0.151292 -0.0492768 0.107298 0.261075 -0.112776 -0.239287 -0.0905738 0.201113 -0.113505 0.2637 -0.156133 -0.00796666 -0.202578 0.0467851 0.190211 0.290651 -0.165101 0.1884 -0.115338 -0.00318955 -0.361198 -0.0937956 0.453652 -0.0613736 -0.032732 -0.23982 -0.253214 -0.238312 0.285109 -0.0480102 0.302017 -0.228023 0.111054 -0.0722155 0.336184 -0.341039 -0.239021 -0.19871 -0.378811 0.264062 -0.296786 -0.182352 0.281433 0.131529 -0.0704607 -0.38989 -0.191541 0.334115 -0.30968 -0.131094 0.315445 0.151045 0.176174 0.461429 0.257292 0.569386 -0.0757523 0.291063 0.0253624 -0.140106 -0.273636 -0.243414 -0.268809 -0.303811 0.251909 -0.261315 0.482016 -0.336827 0.0976962 0.386785 -0.298932 0.201353 0.293638 0.0918728 -0.25471 0.159278 0.268787 0.158751 -0.154983 -0.0564406 0.559428 0.292165 -0.201866 0.561222 -0.276751 -0.00638693 0.250991 -0.359668 1.01755 -0.384292 -0.0522462 -0.285996 -0.254873 0.273936 0.291138 -0.103854 0.398984 -0.277311 -0.000240454 -0.0370133 0.245892 0.16544 -0.263295 0.155443 0.253039 0.260911 -0.262232 -0.206755 0.166528 -0.165177 -0.0874869 0.0359265 -0.264993 0.387117 -0.396262 -0.223084 0.433578 -0.0640553 -0.173148 -0.203163 -0.0188982 -0.072284 0.141314 -0.220768 -0.119718 0.0641767 0.113281 0.162282 0.099155 0.107373 -0.127489 0.139866 -0.126241 0.0175667 0.0109355 -0.223079 -0.00517836 -0.0996291 -0.142473 -0.106867 0.120521 -0.176716 -0.113715 0.119999 0.139835 -0.244972 -0.232047 -0.205956 0.117968 -0.0168719 0.141075 -0.299127 -0.0118967 -0.0031828 0.141489 0.00648555 0.0229227 0.181624 0.15801 -0.0873085 -0.0334657 0.022099 -0.204887 0.163973 -0.0840978 0.0635603 -0.18552 -0.0809865 0.20387 -0.158141 -0.00124257 -0.249389 0.121167 0.0925146 -0.14794 0.14248 0.0291768 -0.113239 0.141998 -0.188648 0.033616 0.185362 0.0245052 -0.0970948 -0.0777537 -0.03069 -0.0148192 -0.0138678 0.0207453 -0.0998139 -0.124134 0.123478 0.0155413 0.0325533 0.0740868 0.108114 -0.055061 0.0543215 -0.116238 0.0108627 -0.0178003 -0.114736 -0.013152 -0.094735 -0.0824018 -0.060138 0.0484735 -0.0823402 -0.0889174 0.0346027 0.0377369 -0.116922 -0.0028843 -0.100634 0.0330612 -0.0167751 0.131183 -0.147993 -0.0756917 -0.00404428 0.00349247 0.00219382 -0.0173764 0.0392884 0.0278446 -0.0789052 -0.0239605 -0.0143253 -0.108311 0.0478117 -0.0566507 -0.00645066 -0.0792539 -0.0958679 0.0346535 -0.118115 -0.0725059 -0.121922 0.0728746 0.00366272 -0.0636074 0.167462 -0.0169049 -0.122714 0.0516969 -0.0964498 0.166665 0.0499112 0.00260221 -0.34453 -0.127568 -0.24758 0.0347134 -0.145373 0.13212 -0.150328 -0.365231 0.260187 0.0597075 0.0994177 0.278816 0.330873 -0.0586641 0.138321 -0.290265 0.00983959 0.0179696 -0.188391 -0.0109238 -0.310793 -0.367884 -0.0942257 0.118385 -0.132579 -0.376893 0.188918 0.136744 -0.233179 -0.179168 -0.158508 0.0994332 -0.122808 0.347232 -0.302415 -0.363821 -0.01261 -0.0647363 -0.0115092 0.00468887 0.105347 0.0899678 -0.333092 0.0283382 0.00254343 -0.155499 0.140244 -0.0956169 0.0356858 -0.113169 -0.339325 0.181837 -0.287892 -0.366675 -0.202689 0.302857 0.0503356 -0.0964185 0.266445 0.00592789 -0.352108 0.144228 -0.122522 0.299369 0.175382 0.0929096 0.000390625 0.00214844 0.000820312 0.00355469 0.00167969 0.000546875 0.0025 0.000820312 0.0021875 0.00253906 0.00226562 0.00265625 0.00109375 0.00359375 0.000507813 0.00351563 0.00277344 0.00242187 0.000195313 0.00328125 0.00242187 0.0003125 0.00351563 0.00242187 0.00230469 0.00351563 0.00316406 0.00171875 0.00347656 0.000390625 0.00328125 0.00203125 0.00351563 0.00164062 0.00320313 0.000976563 0.000976563 0.00214844 0.00234375 0.00277344 0.00242187 0.00269531 0.00234375 0.00136719 0.00230469 0.00210938 0.0028125 0.00269531 0.00132813 0.000976563 0.000898438 0.000195313 0.00015625 0.00359375 0.00113281 0.000742188 0.00046875 0.00378906 0.000351562 0.00277344 0.00253906 0.00105469 0.00257813 0.00324219 0.0003125 0.00265625 0.00324219 0.000703125 0.000390625 0.000234375 0.0015625 0.000976563 0.000625 0.0034375 0.00125 0.00105469 0.0025 0.00199219 0.00328125 0.00386719 0.00257813 0.000664063 0.00078125 0.00046875 0.00152344 0 0.00125 0.00203125 0.00335937 0.00320313 0.000390625 0.00210938 0.00324219 0.000898438 0.00152344 0.00296875 0.00207031 0.00371094 0.00164062 0.00117187 0.00183594 0.00320313 0.00203125 0.00136719 0.000585937 0.00242187 0.00046875 0.0003125 0.00164062 0.00046875 0.00246094 0.00132813 0.00367188 0.00316406 0.000625 0.00386719 0.00015625 0.00382812 0.00015625 0.00300781 0.00375 0.00222656 0.0003125 0.000390625 0.00339844 0.00210938 0.000664063 0.00386719 0.00222656 0.000898438 0.00316406 0.0009375 0.00277344 0.00234375 0.0021875 0.00296875 0.00246094 0.000195313 0.00179688 0.00304688 0.00191406 0.0034375 0.000117187 0.00320313 0.00328125 0.000390625 0.00121094 0.00109375 0.00144531 0.000351562 0.00371094 0.00363281 0.00261719 0.000429688 0.00246094 0.0021875 0.00046875 0.00160156 0.00289062 0 0.00214844 0.00117187 0.00214844 0.00382812 0.00308594 0.000390625 0.00378906 0.00164062 0.00261719 0.00308594 0.000195313 0.0015625 0.00132813 0.00121094 0.00195313 0.00285156 0.00171875 0.00273438 0.00332031 0 0.00242187 0.00332031 0.000390625 0.000859375 0.00371094 0.000429688 0.00246094 0.00316406 0.000742188 0.00371094 0.00359375 0.00339844 0.00359375 0.00289062 0.00308594 0.00210938 0.00230469 0.00132813 0.0590778 -0.0969048 0.0457563 -0.143953 -0.0520805 -0.133996 -0.100232 0.0719387 -0.216707 -0.0188658 -0.0791214 -0.17346 -0.251841 -0.128704 -0.0879497 0.137091 0.0129615 -0.0867844 -0.069369 0.00449057 0.0383761 0.0984979 -0.0734073 -0.0649871 -0.0898915 0.100645 -0.186327 -0.111552 -0.0307815 0.0150732 -0.0862373 -0.0676929 -0.0305709 -0.254779 -0.0027797 0.0774065 0.00611928 -0.0383895 0.0112472 -0.0322501 -0.0760349 -0.0612808 0.0598269 -0.154104 -0.0228254 -0.0853697 -0.103486 -0.0454407 -0.0495862 -0.114142 0.057472 -0.146058 0.0176095 0.0817435 -0.0660448 -0.138297 -0.0206823 -0.108037 -0.23995 -0.0216407 0.0712849 -0.094923 -0.108652 -0.147694 -0.143084 -0.228798 -0.0337682 -0.118343 -0.153767 -0.230006 -0.631136 -0.222198 -0.168377 0.014247 0.0788325 -0.00610442 -0.0408024 0.0342786 -0.0190983 -0.189578 -0.00607695 -0.0110549 -0.100616 -0.126874 -0.302129 -0.132394 -0.0562467 -0.0459937 -0.0981499 0.0426112 -0.114682 -0.02276 -0.152875 -0.12356 -0.0851351 -0.25271 -0.191188 -0.0310353 -0.477299 0.0233309 -0.1056 -0.0546121 -0.17791 -0.800558 -0.196206 -0.0532667 -0.0048607 -0.0124084 -0.0985958 -0.258243 -0.0479859 -0.347877 -0.0118129 -0.079321 -0.0606832 -0.139368 -0.0432306 -0.00513035 -0.0271999 -0.0545696 -0.128615 0.14621 -0.0233579 -0.126726 -0.0143767 -0.047645 0.0309074 0.0018676 -0.369922 0.252256 -0.100044 -0.112943 0.512067 0.0643858 0.560555 0.0115511 0.774638 -0.0487394 0.229477 0.434222 -0.516904 -0.0890271 -0.111588 -0.503122 -0.562291 0.0912675 -0.230909 0.774802 -0.280198 -0.00304684 0.325345 -0.166206 0.457751 1.05048 0.0269082 -0.301224 0.0586032 1.18829 0.165257 -0.0743837 -0.131988 0.510012 0.23494 -0.108314 0.940444 -0.309112 -0.0600243 0.878538 -0.300235 0.153154 -0.389646 -0.00607969 -0.16877 -0.0809848 0.662379 0.0379784 -0.031238 0.315634 -0.245802 0.0101184 0.02118 0.114005 0.503603 -0.171242 0.333994 0.918052 0.262587 -0.387315 -0.0612414 0.0180921 -0.380465 -0.00869614 0.448242 -0.278326 0.28178 -0.937586 -0.14568 0.204693 -0.366397 -0.178378 -0.0705102 -0.0863347 0.0277956 0.153684 -0.246765 -0.410312 0.1696 0.415731 0.253431 -0.100799 -0.145521 -0.151444 0.213867 0.0901883 0.51107 0.0598806 -0.129951 0.446644 -0.309861 0.163879 -0.0452637 0.250078 -0.173537 0.189022 0.0151711 0.199252 -0.238381 -0.0207163 -0.198213 0.264871 -0.081656 0.100927 -0.341401 -0.309876 0.484089 -0.772135 0.517244 0.229329 0.277035 0.306734 -0.201303 -0.100115 0.286402 -0.0977342 0.169975 0.0598048 0.222591 -0.229847 -0.351398 0.129804 -0.364884 -0.321925 -0.217679 -0.0519284 0.351701 -0.167261 0.235746 0.261512 -0.413377 0.165405 -0.0974027 0.191149 0.233765 -0.246597 -0.703788 0.257456 -0.305772 0.15217 -0.132552 -0.167026 0.123741 -0.517783 1.03977 0.109097 -0.0314278 -0.158938 -0.0166712 0.222228 0.0584213 -0.334451 0.528872 0.101968 -0.0758817 0.338107 -0.631313 -0.157046 0.254659 0.135004 0.255352 -0.292919 -0.37014 -0.0968407 0.239812 -0.268257 0.0960085 0.0436696 -0.000104737 0.262789 0.0294568 -0.853617 0.493915 0.188069 0.634469 0.085007 0.0260894 -0.00214383 -0.654017 0.168834 0.128784 -0.0159058 0.00300558 0.263335 0.005455 0.238056 -0.675841 -0.0936163 -0.465242 -0.88542 0.055444 -0.269919 0.0601221 0.265778 0.676867 0.0709125 -0.562467 0.0342653 0.0853034 1.41928 0.0123605 -0.0730412 0.0703626 0.160745 0.623604 0.0595703 1.26487 -0.230255 0.389662 -0.064485 -0.241351 -0.581454 -0.591787 -0.624755 -0.828043 0.23731 -0.52825 0.6478 -0.380567 -0.166969 0.527186 -0.366915 0.123626 0.61055 0.052482 -0.564934 0.157272 0.441001 0.0429586 -0.438474 -0.214212 0.599671 0.387745 -0.529439 1.26189 -0.7924 -0.372206 0.0647393 -0.363792 1.98233 -0.348726 -0.302635 -0.609933 -0.627262 0.253777 0.10602 -0.312196 0.542823 -0.576476 -0.0373988 -0.403144 0.279724 0.150352 -0.402141 -0.051258 0.0556136 0.302053 -0.509359 -0.523717 0.157121 -0.405997 -0.347503 -0.150713 -0.569983 0.582621 -0.082122 -0.33245 0.315744 0.0820641 -0.152166 0.34359 -0.171468 2.00788 -0.210436 -0.212628 0.166437 -1.40477 -0.438188 -0.366234 -0.604036 -0.622135 -0.179236 -0.388935 1.72944 -0.369533 -0.191584 -0.0559779 -0.25126 -0.0102757 0.775687 -0.061282 -0.347849 -0.119708 0.785262 -0.0688672 -0.317522 -0.234865 0.278146 -0.142078 -0.410233 1.8221 -0.746445 -0.288577 0.264778 -0.29389 2.22871 -0.352463 -0.215283 -0.321562 -0.43453 0.24552 -0.149658 -0.221646 -0.0735823 -0.323321 -0.0562497 -0.322763 -0.250151 0.0995134 -0.398001 -0.0798361 0.2802 -0.105117 -0.616575 -0.410517 -0.157378 -1.52424 -0.251034 0.0840549 -0.352927 -0.147924 -1.93155 -0.347274 0.239353 -0.523245 -0.270522 -0.146299 -0.222991 0.234393 0.327094 -0.315054 -0.48672 -0.195659 0.200163 0.167589 -0.0228887 0.0239678 -0.227394 0.178533 -0.502194 0.298804 -0.123545 -0.267218 0.252687 -0.482577 -0.0642702 -0.14908 0.142734 -0.261711 -0.134336 0.114671 0.183249 -0.523141 -0.222999 -0.282514 0.0888292 0.298322 -0.0743561 -0.705439 -0.574341 0.325866 0.115467 0.339899 -0.00856765 0.284301 0.157791 -0.353693 -0.241174 0.0505816 -0.252128 0.204297 -0.101172 -0.0787257 -0.300205 -0.498437 0.347872 -0.542817 -0.594671 -0.344268 -0.0428146 0.0920323 -0.228375 -0.149404 0.00768561 -0.54366 0.15716 -0.237973 -0.516355 0.496931 -0.319315 -0.101677 0.300642 0.339439 0.130406 0.262452 -0.109073 0.448388 -0.101839 0.511034 -0.0836343 -0.181637 -0.354207 -0.309224 0.28824 -0.136428 -0.321972 0.0212305 0.0496526 0.321905 -0.0306722 -0.0066148 0.252912 0.196751 -0.115248 0.274602 0.216832 -0.052102 -0.158936 -0.00125833 0.293537 0.366723 -0.107974 0.335265 -0.101312 -0.0452747 -0.0877444 -0.0133844 0.0211061 0.0289593 -0.0276312 -0.170034 -0.158924 0.0755362 0.147787 -0.0225861 0.305397 -0.21219 0.117598 -0.0748939 0.370158 -0.0842345 -0.228467 -0.022782 -0.0975826 0.409854 -0.399209 -0.088872 0.284605 0.392277 -0.0458997 -0.105319 -0.186994 0.323076 -0.180845 -0.0158909 0.0594029 -0.071053 0.250815 0.088079 0.151413 -0.202148 -0.108118 0.251893 -0.137062 0.48032 -0.103597 -0.109322 -0.0434475 -0.048969 0.210427 -0.0515992 -0.0903074 -0.0053952 0.118973 0.0960702 -0.0427353 -0.0217956 0.0426776 0.215477 0.0257659 0.236177 0.0939771 0.0126257 -0.0795967 0.159112 0.121289 0.190209 -0.0511557 -0.0701869 0.0023686 0.141886 0.0737005 -0.0422247 0.474653 -0.0198107 0.0468218 -0.0945916 -0.110972 0.0375123 0.157682 0.0423021 0.0750371 -0.0606771 0.176754 0.016225 0.25493 -0.0653174 -0.131782 0.00881836 0.0849089 0.249557 -0.0847394 -0.0597267 0.244438 0.320724 0.0242925 -0.0938887 -0.0296752 0.0779822 0.231426 -0.0876921 0.191088 -0.00125038 0.195317 -0.290746 0.155255 -0.762912 0.288368 0.119102 -0.0444024 0.8736 0.379236 0.409411 0.44875 0.470545 0.186366 0.441991 -0.852982 0.32629 0.201435 0.00302354 0.254147 -0.00828159 -0.197353 0.227825 0.455357 0.180425 -0.0955665 0.167653 0.360476 0.136903 -0.383461 0.109906 0.370452 -0.628995 0.505611 0.0107862 0.065725 0.288568 -0.577982 0.319464 0.217359 0.471377 0.413892 -0.0587301 0.146094 0.242568 -0.00703472 0.476244 0.236634 0.221681 0.170966 -0.0267895 0.482559 0.0223605 0.0757964 0.0951752 0.423726 0.316697 0.218763 0.769125 0.222062 -0.0237027 0.461945 0.0355884 0.619963 0.481144 0.109646 0.16886 0.427168 -0.15454 0.281042 -0.820756 -0.0077108 0.4694 0.209287 0.948986 -0.0214266 0.046839 0.360884 0.493922 0.436808 0.192771 -0.876933 -0.0215883 0.138491 0.381907 -0.109854 0.194193 -0.295115 0.312509 0.184123 0.404778 -0.214665 0.0680136 0.0888968 0.313364 -0.178416 0.434322 0.103157 -0.763973 0.541589 0.268509 0.119112 -0.105217 -0.670842 -0.0695152 0.0110417 0.066557 0.0266051 0.0119053 0.311397 0.00668923 0.37695 0.157323 0.20295 -0.00408247 0.473638 0.158514 0.0632783 0.318989 0.127272 0.434068 0.281967 -0.0283983 0.445719 0.847188 -0.018372 0.255049 0.19809 0.451633 0.834223 0.13671 0.359606 0.0780506 -0.010842 0.0888365 -0.080417 0.0683033 -0.216283 0.02415 0.0633603 -0.0978373 -0.192058 -0.215558 -0.146872 -0.112174 -0.0305818 -0.178269 0.0506657 -0.133969 -0.102115 0.0367591 -0.131638 0.0692229 0.0333457 -0.0445585 -0.181846 -0.0108512 0.0270725 -0.146338 -0.197891 -0.0139503 0.125211 0.0183478 -0.17238 0.0790224 -0.112084 0.000963419 0.102808 -0.128493 0.0812503 -0.115917 -0.119437 -0.227242 -0.216708 0.052805 -0.0756123 -0.123331 0.0205647 -0.213199 -0.0633428 -0.141897 0.00114945 0.0807316 -0.27505 0.0574094 0.109137 0.0384193 -0.171849 -0.168994 -0.0120654 -0.0534406 -0.128073 0.0581547 -0.188603 0.0192915 -0.0909248 -0.233108 -0.0712684 0.00171875 0.00101563 0.00171875 0.00183594 0.00375 0.00339844 0.00078125 0.00289062 0.00207031 0.000664063 0.000429688 0.00109375 0.00148438 0.0034375 0.00222656 0.00355469 0.000664063 0.00214844 0.00335937 0.001875 0.0015625 0.0003125 0.00339844 0.000117187 0.00140625 0.00300781 0.00253906 0.00140625 0.00347656 0.00304688 0.00359375 0.00101563 0.00269531 0.00246094 0.00214844 0.00210938 0.00105469 0.0025 0.00242187 0.00226562 0.00144531 0.000390625 3.90625e-05 0.00304688 0.00113281 0.00246094 0.00308594 0.00148438 0.000625 0.00160156 0.00160156 0.00238281 0.00046875 0.00261719 0.003125 0.000546875 0.0025 0.00125 0.00109375 0.00316406 0.000546875 0.00078125 0.00117187 0.00253906 0.00140625 0.00234375 0.00175781 0.0021875 0.000703125 0.000234375 0.000625 0.00210938 0.00148438 0.00160156 0.00308594 0.00191406 0.000976563 0.00117187 0.00292969 0.000117187 0.00160156 0.00292969 0.00121094 0.00304688 0.00296875 0.00277344 0.00285156 0.00347656 0.000625 0.00175781 0.00328125 0.001875 0.000273438 0.00179688 0.00136719 0.00242187 0.000234375 0.00191406 3.90625e-05 0.003125 0.0015625 0.000859375 0.00183594 0.00128906 0.00234375 0.00371094 0.00339844 0.0003125 0.00335937 0.00046875 0.00289062 0.00242187 0.00363281 0.000664063 0.00296875 0.00113281 0.00386719 0.00171875 0.000703125 0.00355469 0.000664063 0.00285156 0.00222656 0.00339844 0.00292969 0.000234375 0.00289062 3.90625e-05 0.000703125 0.00183594 0.00300781 0.00234375 0.000859375 0.00320313 0.00238281 0.000976563 0.00164062 0.00386719 0.00121094 0.00238281 0.000976563 0.00222656 0.00199219 0.00292969 0.00046875 0.00140625 0.0025 0.000585937 0.000234375 0.00148438 0.00078125 0.00304688 0.00121094 0.000585937 0.000117187 0.000898438 0.000273438 0.00320313 0.00117187 0.00332031 0.00191406 0.00160156 0.00355469 0.00117187 0.00199219 0.0021875 0.00339844 0.00296875 0.000195313 0.00363281 0.00207031 0.00179688 0.00320313 0.00304688 0.00378906 0.00347656 0.000507813 0.00167969 0.000429688 0.00277344 0.00171875 0.00257813 0.000976563 0.0034375 0.00363281 0.00328125 0.00304688 0.000429688 0.00210938 0.00195313 0.00285156 0.000273438 0.000703125 0.000117187 0.00113281 0.00105469 0.00265625 0.00140625 0.243095 -0.157584 0.204308 -0.283984 0.0945865 -0.332835 -0.129224 0.270999 -0.52924 -0.106403 -0.242764 -0.479173 -0.624205 -0.23208 -0.270505 0.359044 -0.0190249 -0.197037 -0.026819 -0.00720516 0.195916 0.310123 -0.140144 -0.231569 -0.146599 0.325495 -0.428181 -0.304573 -0.0151381 0.143 -0.0994635 -0.213198 0.132403 -0.622911 0.0812554 0.282877 -0.00301195 0.0147634 0.0083197 -0.0938665 -0.25247 -0.210869 0.244568 -0.297191 -0.0806481 -0.0625499 -0.309121 -0.0922602 -0.140216 -0.188065 0.234478 -0.413337 0.147396 0.293918 -0.0387507 -0.431657 -0.100528 -0.190073 -0.564041 -0.0780306 0.259463 -0.293834 -0.117059 -0.406235 -0.386678 -0.44322 0.145457 0.112603 -0.0909994 -0.161711 -0.431574 -0.455703 0.167692 0.20733 0.3108 -0.224235 -0.253948 -0.031524 0.0111567 0.0190786 -0.155383 -0.14343 -0.325812 -0.158212 -0.0659446 -0.373458 0.131913 -0.113084 -0.00807399 -0.115192 0.0975897 -0.0715857 -0.268099 -0.326054 0.0404911 -0.177578 0.0852824 -0.208312 -0.366262 0.101919 0.041907 0.0780622 -0.421263 -0.775019 -0.421492 -0.185401 -0.20955 -0.224091 0.0340534 -0.16103 -0.203405 -0.112545 -0.184256 -0.0781931 -0.198535 0.157272 0.135328 -0.198453 0.206297 0.081785 0.170081 0.0375313 -0.232788 0.0878556 0.180251 -0.199859 0.243961 -0.146777 -0.0991349 0.52483 -0.28853 0.0882747 0.176767 0.322113 -0.0707344 0.319238 -0.0656922 0.239483 0.447427 0.241977 0.60523 0.146232 0.202138 -0.018128 0.115029 0.378167 0.151547 -0.320157 -0.0705725 0.264581 0.271456 -0.106206 0.171662 0.0763628 0.230925 0.107138 0.290428 0.188351 0.38692 0.240349 0.00397479 -0.0794737 0.392656 0.219861 0.128005 0.422682 -0.0330918 0.319407 -0.191878 -0.20057 -0.207315 0.159053 0.146319 0.208313 0.134634 0.342793 0.124223 0.311139 0.122801 0.167484 0.22299 0.417622 0.150242 0.0955825 0.221528 0.344461 0.333852 -0.0587375 0.138002 0.31434 0.717841 0.127743 0.294825 0.109383 0.409604 0.250485 0.206508 0.45097 -1.39342e+134 -3.02188e+135 -3.38556e+134 -2.57791e+135 2.29653e+133 -6.80737e+134 -2.7428e+135 -9.13108e+133 -3.5436e+135 -1.09956e+134 -2.39835e+134 -5.42372e+134 -4.20695e+134 -2.89235e+135 -4.66975e+134 2.07066e+134 -1.74383e+134 -2.01373e+135 -1.9653e+135 -2.16685e+134 -2.7608e+134 -1.84229e+134 -2.76621e+135 -8.78119e+134 -2.9327e+135 -3.00149e+134 -1.0407e+135 -5.39049e+134 -2.68603e+135 -1.07163e+135 -2.50468e+135 -4.21909e+134 -1.23402e+134 -1.6912e+135 -2.00109e+135 -1.30116e+134 -8.18929e+133 2.9694e+132 -2.50717e+133 -1.11748e+135 -1.82803e+134 -1.55173e+134 -2.16788e+134 -2.65555e+135 -9.03082e+134 -2.16054e+135 -5.97808e+134 -2.52016e+135 -1.02236e+135 -3.06774e+135 -1.60731e+134 -6.00588e+134 -9.63667e+134 -1.21163e+134 -2.43655e+135 -2.18897e+134 -2.69861e+134 -3.06695e+135 -3.25628e+135 -8.33808e+134 -1.23685e+134 -8.86836e+134 -2.55328e+135 -2.78438e+135 -6.03936e+134 -1.86386e+135 -4.66333e+134 -1.01132e+136 -1.13303e+135 -8.62742e+135 7.68573e+133 -2.2782e+135 -9.17925e+135 -3.05587e+134 -1.18592e+136 -3.67986e+134 -8.02648e+134 -1.81514e+135 -1.40793e+135 -9.67972e+135 -1.56281e+135 6.9298e+134 -5.83601e+134 -6.73929e+135 -6.5772e+135 -7.25171e+134 -9.23949e+134 -6.16554e+134 -9.2576e+135 -2.93877e+135 -9.81476e+135 -1.0045e+135 -3.48287e+135 -1.80402e+135 -8.98926e+135 -3.5864e+135 -8.38234e+135 -1.41199e+135 -4.12985e+134 -5.65987e+135 -6.69698e+135 -4.35454e+134 -2.74068e+134 9.93758e+132 -8.39066e+133 -3.73984e+135 -6.1178e+134 -5.19314e+134 -7.25516e+134 -8.88724e+135 -3.02231e+135 -7.2306e+135 -2.00066e+135 -8.43413e+135 -3.42151e+135 -1.02667e+136 -5.37915e+134 -2.00997e+135 -3.22507e+135 -4.05493e+134 -8.15433e+135 -7.32574e+134 -9.03136e+134 -1.02641e+136 -1.08977e+136 -2.79048e+135 -4.13933e+134 -2.96794e+135 -8.54499e+135 -9.31839e+135 -2.02117e+135 -6.23771e+135 -5.61085e+134 -1.21681e+136 -1.36325e+135 -1.03804e+136 9.24738e+133 -2.7411e+135 -1.10444e+136 -3.67678e+134 -1.42689e+136 -4.42756e+134 -9.65736e+134 -2.18395e+135 -1.694e+135 -1.16465e+136 -1.88035e+135 8.33785e+134 -7.02181e+134 -8.10863e+135 -7.9136e+135 -8.72517e+134 -1.11168e+135 -7.41829e+134 -1.11386e+136 -3.53589e+135 -1.1809e+136 -1.2086e+135 -4.19054e+135 -2.17057e+135 -1.08158e+136 -4.31511e+135 -1.00855e+136 -1.69889e+135 -4.96898e+134 -6.80988e+135 -8.05772e+135 -5.23932e+134 -3.29755e+134 1.19568e+133 -1.00955e+134 -4.49973e+135 -7.36086e+134 -6.24832e+134 -8.72931e+134 -1.0693e+136 -3.63641e+135 -8.69976e+135 -2.40717e+135 -1.01478e+136 -4.11672e+135 -1.23528e+136 -6.47212e+134 -2.41837e+135 -3.88036e+135 -4.87884e+134 -9.81119e+135 -8.81424e+134 -1.08664e+135 -1.23496e+136 -1.31119e+136 -3.35747e+135 -4.98039e+134 -3.57099e+135 -1.02812e+136 -1.12118e+136 -2.43185e+135 -7.50513e+135 -8.08186e+134 -1.75269e+136 -1.96363e+135 -1.49519e+136 1.33199e+134 -3.94828e+135 -1.59083e+136 -5.29603e+134 -2.05529e+136 -6.37744e+134 -1.39104e+135 -3.14576e+135 -2.44003e+135 -1.67756e+136 -2.70845e+135 1.20098e+135 -1.01142e+135 -1.16797e+136 -1.13987e+136 -1.25677e+135 -1.60127e+135 -1.06853e+135 -1.6044e+136 -5.09309e+135 -1.70097e+136 -1.74087e+135 -6.03605e+135 -3.12648e+135 -1.5579e+136 -6.21547e+135 -1.45272e+136 -2.44707e+135 -7.15731e+134 -9.80894e+135 -1.16063e+136 -7.54671e+134 -4.74979e+134 1.72225e+133 -1.45416e+134 -6.4814e+135 -1.06026e+135 -9.00006e+134 -1.25737e+135 -1.54022e+136 -5.23787e+135 -1.25311e+136 -3.46728e+135 -1.46169e+136 -5.92971e+135 -1.77929e+136 -9.32243e+134 -3.48341e+135 -5.58927e+135 -7.02747e+134 -1.4132e+136 -1.2696e+135 -1.5652e+135 -1.77883e+136 -1.88864e+136 -4.83609e+135 -7.17373e+134 -5.14365e+135 -1.4809e+136 -1.61494e+136 -3.50283e+135 -1.08104e+136 -9.82829e+134 -2.13143e+136 -2.38795e+135 -1.81829e+136 1.61982e+134 -4.80147e+135 -1.93459e+136 -6.44046e+134 -2.49942e+136 -7.75556e+134 -1.69164e+135 -3.82553e+135 -2.9673e+135 -2.04007e+136 -3.29373e+135 1.4605e+135 -1.22998e+135 -1.42035e+136 -1.38619e+136 -1.52835e+135 -1.94729e+135 -1.29943e+135 -1.9511e+136 -6.19367e+135 -2.06853e+136 -2.11705e+135 -7.34039e+135 -3.80209e+135 -1.89455e+136 -7.55858e+135 -1.76664e+136 -2.97587e+135 -8.70395e+134 -1.19286e+136 -1.41143e+136 -9.17749e+134 -5.77618e+134 2.09441e+133 -1.76839e+134 -7.88198e+135 -1.28937e+135 -1.09449e+135 -1.52907e+135 -1.87305e+136 -6.36974e+135 -1.5239e+136 -4.21654e+135 -1.77755e+136 -7.21107e+135 -2.16378e+136 -1.13369e+135 -4.23614e+135 -6.79706e+135 -8.54605e+134 -1.71858e+136 -1.54395e+135 -1.90342e+135 -2.16322e+136 -2.29676e+136 -5.88113e+135 -8.72392e+134 -6.25515e+135 -1.80092e+136 -1.96392e+136 -4.25976e+135 -1.31464e+136 -8.73212e+133 -1.89371e+135 -2.12162e+134 -1.61549e+135 1.43916e+133 -4.26595e+134 -1.71882e+135 -5.72214e+133 -2.22065e+135 -6.89057e+133 -1.50297e+134 -3.39886e+134 -2.63636e+134 -1.81254e+135 -2.92638e+134 1.29761e+134 -1.0928e+134 -1.26194e+135 -1.23159e+135 -1.35789e+134 -1.7301e+134 -1.1545e+134 -1.73349e+135 -5.50288e+134 -1.83782e+135 -1.88094e+134 -6.52171e+134 -3.37804e+134 -1.68325e+135 -6.71556e+134 -1.5696e+135 -2.64396e+134 -7.73318e+133 -1.05982e+135 -1.25402e+135 -8.15391e+133 -5.13195e+133 1.86082e+132 -1.57116e+133 -7.00289e+134 -1.14556e+134 -9.72421e+133 -1.35854e+134 -1.66414e+135 -5.65931e+134 -1.35394e+135 -3.74626e+134 -1.5793e+135 -6.40681e+134 -1.92245e+135 -1.00725e+134 -3.76368e+134 -6.03898e+134 -7.5929e+133 -1.52691e+135 -1.37175e+134 -1.69113e+134 -1.92196e+135 -2.0406e+135 -5.2252e+134 -7.75093e+133 -5.5575e+134 -1.60006e+135 -1.74488e+135 -3.78467e+134 -1.16802e+135 0.0899526 -0.0681139 -0.42161 -0.16262 -0.356065 -0.162109 -0.261522 0.326656 0.372991 0.170841 0.0400686 -0.400931 -0.387262 -0.174422 -0.00545412 -0.619022 0.387142 -0.00547825 -0.424606 0.296697 -0.0281552 -0.243909 0.0173946 0.0634961 -0.0659478 -0.12931 -0.226843 -0.0601799 0.0168968 -0.590665 -0.291698 0.0874684 -0.202031 -0.201185 0.0100353 0.066494 0.368257 0.0540468 0.440863 0.130237 0.0381384 0.086173 -0.0920537 -0.195397 0.175115 -0.460423 -0.0598789 0.10325 0.0908186 -0.157763 0.0531144 -0.341763 -0.0367033 0.0876813 -0.204213 -0.490775 0.159869 -0.0667542 0.202757 0.141918 0.322491 -0.0489376 -0.485236 0.498156 -0.200097 -0.237894 0.679361 0.0962088 0.442238 -0.0925621 0.477052 -0.0885794 0.150234 0.796552 -0.0247714 0.0393273 -0.0261458 -0.383089 -0.407866 -0.0274239 -0.0854347 0.0782601 0.144925 0.0517634 0.20104 0.175625 0.587243 0.606691 0.134549 -0.106442 0.104937 0.68559 -0.127081 -0.0625616 0.195317 0.313157 0.140073 0.00507931 0.445083 -0.304409 0.280724 0.752621 0.167504 0.167305 0.166609 0.127567 -0.0528238 -0.00490103 0.626072 -0.11895 0.139405 0.122642 -0.116543 0.199387 0.077016 0.0370042 0.660115 -0.245835 0.509338 0.771425 0.296682 -0.424011 0.0679788 0.0539774 -0.105461 0.123594 0.788822 -0.123995 0.0511507 -0.180485 -0.144601 -0.203636 0.253777 0.480547 -0.0193909 0.289138 -0.716133 -0.00851169 0.516241 0.281687 0.839579 -0.00742488 0.0259151 0.286051 0.403465 0.465729 0.140843 -0.707496 0.05136 0.170249 0.459426 0.00120852 0.270788 0.00855568 0.377643 0.134746 0.459544 0.117233 0.0641578 0.0725889 0.389929 -0.112198 0.493471 0.0859198 -0.619772 0.461653 0.337525 0.291427 -0.00788877 -0.54242 0.0174229 0.0691403 0.0318031 0.00830135 0.151144 0.326048 0.0723574 0.447495 0.105756 0.291781 0.0286153 0.50557 0.23591 0.0234219 0.355761 0.305799 0.510742 0.217308 0.00234049 0.479132 0.720423 0.0369316 0.307372 0.145316 0.504193 0.576637 0.104762 0.343591 0.822152 0.409918 0.587075 -0.0432184 0.141332 -0.601105 0.552357 0.812928 -0.260412 -0.47762 -0.578546 -0.612478 -0.618135 0.265738 -0.528327 0.236225 -0.283449 -0.136884 0.579163 -0.248183 0.74866 0.620859 0.233253 -0.50936 0.406568 0.675978 -0.542208 -0.568293 0.531627 0.535801 0.523365 -0.466463 0.158745 -0.634119 0.648871 0.907334 -0.246698 0.168543 -0.224274 -0.210416 -0.609715 -0.564191 0.729601 -0.0087258 -0.220888 0.518327 -0.606635 0.15454 -0.31753 0.439613 0.819674 -0.797203 0.684314 0.932108 0.632557 -0.71969 -0.415068 0.352646 -0.316667 -0.247179 0.783834 -0.55448 0.496232 -0.509718 -0.679315 -0.0976738 0.0757659 0.0270115 0.0751597 -0.00263303 0.0707582 -0.0554393 0.0507289 0.0678139 -0.0825683 -0.0655198 -0.0669544 -0.0639676 -0.0754494 0.0177423 -0.0631712 0.082795 -0.0492326 -0.0170325 0.0567437 -0.042635 0.0719212 0.0652603 0.00533366 -0.0665356 0.024683 0.0617015 -0.0368916 -0.0573759 0.0236668 0.0847107 0.0468904 -0.0553139 0.0644531 -0.0783059 0.0394951 0.0849915 -0.0493282 0.0669089 -0.0478724 -0.03308 -0.0747799 -0.0676823 0.0706093 3.51537e-05 -0.0335298 0.0503407 -0.0731139 -0.00428291 -0.036334 0.034601 0.0792613 -0.0825782 0.0597282 0.0870127 0.0513111 -0.0735222 -0.0554992 0.0219891 -0.0619856 -0.0362537 0.0672101 -0.066515 0.0501709 -0.0778117 -0.0698464 0.00242711 0.00285156 0.00046875 0.00191406 0.00121094 0.00363281 0.00351563 0.00222656 0.000625 0.000117187 0.00304688 0.00136719 0.00128906 0.00347656 0.000234375 0.000429688 0.00144531 0.000820312 3.90625e-05 0.000507813 0.000898438 0.000390625 0.00332031 0.00183594 0.00371094 0.00273438 0.00210938 0.00113281 0.0025 0.00378906 0.00363281 0.00125 0.0028125 0.000429688 0.00351563 0.00378906 0.00367188 0.00285156 0 0.00300781 0.00289062 0.00101563 0.00175781 0.000820312 0.0015625 0.00339844 0.00125 0.00308594 0.00148438 0.00261719 0.00363281 0.00363281 0.00230469 0.000820312 0.00210938 0.00277344 0.00277344 0.00214844 0.00359375 0.00171875 0.000859375 0.00328125 0.00265625 0.00191406 0.0003125 0.0015625 0.00117187 0.00125 0.000390625 0.000546875 0.00347656 0.000546875 0.000234375 0.00273438 0.00171875 0.000898438 0.000703125 0.00125 0.00285156 0.00230469 0.00277344 0.00300781 0.003125 0.00382812 0.00207031 0.00144531 0.00195313 0.00121094 0.000390625 0.00109375 0.00386719 0.00359375 0.00324219 0.00316406 0.00296875 0.00332031 0.00015625 0.00167969 0.00160156 0.00261719 0.00015625 0.00210938 0.00226562 0.00371094 0.0025 0.000234375 0.00078125 0.00277344 0.0003125 0.00371094 0.00371094 0.0015625 0.00109375 0.00128906 7.8125e-05 0.00253906 0.003125 0.0034375 0.00257813 0.00292969 0.00386719 0.00179688 0.00148438 0.000546875 0.0034375 0.00140625 0.00367188 0.00246094 0.0003125 0.00289062 0.00246094 7.8125e-05 0.00257813 0.233857 -0.096266 0.165598 -0.240255 0.109189 -0.341921 -0.0564014 0.265867 -0.420457 -0.0948451 -0.229014 -0.412232 -0.518617 -0.163739 -0.242359 0.271761 -0.00884786 -0.17494 0.00710867 0.00234177 0.196335 0.261294 -0.0989862 -0.198142 -0.0871133 0.283876 -0.439125 -0.296872 0.019101 0.108558 -0.0462709 -0.198065 0.150713 -0.512695 0.103955 0.26672 0.0141142 -0.116521 0.0290852 -0.0950132 -0.222584 -0.195711 0.222866 -0.247603 -0.0784347 -0.0249551 -0.275758 -0.0723911 -0.139926 -0.111792 0.222063 -0.391261 0.169583 0.275838 0.0150303 -0.389957 -0.0964616 -0.125882 -0.457806 -0.0810888 0.259272 -0.25572 -0.0711186 -0.313506 -0.365264 -0.379709 0.155347 -0.0570891 -0.0363858 -0.415964 -0.355987 -0.752963 0.00951794 0.263888 -0.2032 -0.404005 -0.540016 -0.543627 -0.609134 -0.205064 -0.468883 0.169156 -0.396714 -0.340115 -0.188189 -0.42656 0.112591 0.0671552 -0.151063 -0.397251 -0.0556075 0.0885921 -0.619877 -0.635209 0.00916064 -0.128524 -0.0435268 -0.458726 -0.259081 -0.526371 0.093137 0.113434 -0.463372 -0.551095 -0.446424 -0.30043 -0.505472 -0.483396 0.06928 -0.430178 -0.318089 -0.243123 -0.529707 -0.172666 -0.355773 -0.0393262 0.140251 -0.638826 0.192949 0.118045 0.0684964 -0.485582 -0.387664 -0.108354 -0.373531 -0.309911 0.297862 -0.47799 -0.257884 0.152778 -0.667436 -0.348417 -0.318234 0.344521 -0.88762 0.122219 -1.4037 0.147597 0.308159 -0.158549 1.1861 0.326313 0.350324 0.323707 0.464606 0.284332 0.409257 -1.26165 0.244481 0.155265 -0.0384338 0.0553507 -0.237815 -0.927045 0.248278 0.417216 0.314914 -0.880282 0.213803 0.281355 0.241174 -0.92563 0.236926 0.370424 -1.09341 0.744428 0.178429 -0.550766 0.0672412 -1.09635 0.136858 0.16087 0.360921 0.376922 -0.608626 0.126963 0.181584 -0.0332442 0.357249 0.214616 0.171127 0.380235 -0.348307 0.371035 0.0933193 -0.565342 0.218994 0.318164 0.245276 0.34532 1.25913 0.144788 -0.058583 0.371409 0.0806403 0.986169 0.35716 0.328287 -4.29175e+134 -9.30739e+135 -1.04275e+135 -7.93997e+135 7.07332e+133 -2.09667e+135 -8.44784e+135 -2.81237e+134 -1.09143e+136 -3.38664e+134 -7.38692e+134 -1.67051e+135 -1.29574e+135 -8.90843e+135 -1.43828e+135 6.37763e+134 -5.37099e+134 -6.2023e+135 -6.05312e+135 -6.67389e+134 -8.50328e+134 -5.67426e+134 -8.51994e+135 -2.70461e+135 -9.03271e+135 -9.2446e+134 -3.20535e+135 -1.66027e+135 -8.27298e+135 -3.30063e+135 -7.71442e+135 -1.29948e+135 -3.80078e+134 -5.20888e+135 -6.16335e+135 -4.00756e+134 -2.5223e+134 9.14574e+132 -7.72209e+133 -3.44185e+135 -5.63033e+134 -4.77934e+134 -6.67706e+134 -8.17909e+135 -2.78149e+135 -6.65445e+135 -1.84125e+135 -7.76209e+135 -3.14888e+135 -9.44863e+135 -4.95053e+134 -1.84981e+135 -2.96809e+135 -3.73183e+134 -7.50459e+135 -6.74202e+134 -8.31173e+134 -9.44622e+135 -1.00293e+136 -2.56813e+135 -3.8095e+134 -2.73145e+135 -7.86411e+135 -8.57589e+135 -1.86012e+135 -5.74068e+135 -1.69069e+135 -3.66655e+136 -4.10782e+135 -3.12787e+136 2.78646e+134 -8.25961e+135 -3.32794e+136 -1.1079e+135 -4.29957e+136 -1.33413e+135 -2.91e+135 -6.58078e+135 -5.10444e+135 -3.50938e+136 -5.66596e+135 2.5124e+135 -2.11584e+135 -2.44333e+136 -2.38456e+136 -2.62911e+135 -3.34978e+135 -2.23531e+135 -3.35634e+136 -1.06545e+136 -3.55834e+136 -3.64181e+135 -1.26271e+136 -6.54046e+135 -3.25905e+136 -1.30025e+136 -3.03901e+136 -5.11916e+135 -1.49728e+135 -2.05198e+136 -2.42799e+136 -1.57874e+135 -9.93634e+134 3.60287e+133 -3.04203e+134 -1.35588e+136 -2.21801e+135 -1.88277e+135 -2.63036e+135 -3.22207e+136 -1.09574e+136 -2.62145e+136 -7.2534e+135 -3.05779e+136 -1.24047e+136 -3.72219e+136 -1.95021e+135 -7.28713e+135 -1.16925e+136 -1.47011e+135 -2.95635e+136 -2.65595e+135 -3.27432e+135 -3.72124e+136 -3.95095e+136 -1.01169e+136 -1.50071e+135 -1.07603e+136 -3.09798e+136 -3.37838e+136 -7.32776e+135 -2.26148e+136 -1.23922e+135 -2.68746e+136 -3.01089e+135 -2.29262e+136 2.04238e+134 -6.05402e+135 -2.43927e+136 -8.12058e+134 -3.15144e+136 -9.77875e+134 -2.13293e+135 -4.82349e+135 -3.74138e+135 -2.57226e+136 -4.15296e+135 1.84151e+135 -1.55084e+135 -1.79088e+136 -1.74781e+136 -1.92705e+135 -2.45528e+135 -1.63841e+135 -2.46009e+136 -7.8094e+135 -2.60815e+136 -2.66933e+135 -9.25527e+135 -4.79394e+135 -2.38878e+136 -9.53038e+135 -2.2275e+136 -3.75218e+135 -1.09745e+135 -1.50404e+136 -1.77963e+136 -1.15716e+135 -7.28301e+134 2.64078e+133 -2.22971e+134 -9.93815e+135 -1.62573e+135 -1.38001e+135 -1.92796e+135 -2.36167e+136 -8.03141e+135 -1.92144e+136 -5.3165e+135 -2.24126e+136 -9.09222e+135 -2.72824e+136 -1.42944e+135 -5.34123e+135 -8.57021e+135 -1.07755e+135 -2.16691e+136 -1.94672e+135 -2.39997e+135 -2.72754e+136 -2.89592e+136 -7.41534e+135 -1.09997e+135 -7.88692e+135 -2.27072e+136 -2.47624e+136 -5.37101e+135 -1.65759e+136 -9.5496e+134 -2.07099e+136 -2.32024e+135 -1.76673e+136 1.57389e+134 -4.66532e+135 -1.87974e+136 -6.25783e+134 -2.42855e+136 -7.53565e+134 -1.64367e+135 -3.71705e+135 -2.88316e+135 -1.98222e+136 -3.20033e+135 1.41909e+135 -1.1951e+135 -1.38008e+136 -1.34688e+136 -1.48501e+135 -1.89207e+135 -1.26258e+135 -1.89578e+136 -6.01804e+135 -2.00988e+136 -2.05702e+135 -7.13225e+135 -3.69428e+135 -1.84083e+136 -7.34425e+135 -1.71654e+136 -2.89148e+135 -8.45714e+134 -1.15903e+136 -1.37141e+136 -8.91726e+134 -5.61239e+134 2.03503e+133 -1.71825e+134 -7.65848e+135 -1.25281e+135 -1.06346e+135 -1.48572e+135 -1.81994e+136 -6.18912e+135 -1.48069e+136 -4.09697e+135 -1.72715e+136 -7.00659e+135 -2.10242e+136 -1.10155e+135 -4.11603e+135 -6.60433e+135 -8.30372e+134 -1.66985e+136 -1.50017e+135 -1.84945e+135 -2.10189e+136 -2.23164e+136 -5.71437e+135 -8.47655e+134 -6.07778e+135 -1.74985e+136 -1.90823e+136 -4.13898e+135 -1.27736e+136 -7.93323e+134 -1.72046e+136 -1.92751e+135 -1.46769e+136 1.30749e+134 -3.87566e+135 -1.56157e+136 -5.19863e+134 -2.01749e+136 -6.26016e+134 -1.36546e+135 -3.0879e+135 -2.39516e+135 -1.64671e+136 -2.65864e+135 1.17889e+135 -9.92819e+134 -1.14649e+136 -1.11891e+136 -1.23366e+135 -1.57182e+135 -1.04888e+135 -1.5749e+136 -4.99942e+135 -1.66968e+136 -1.70885e+135 -5.92504e+135 -3.06898e+135 -1.52925e+136 -6.10116e+135 -1.426e+136 -2.40207e+135 -7.02568e+134 -9.62854e+135 -1.13929e+136 -7.40792e+134 -4.66244e+134 1.69058e+133 -1.42742e+134 -6.3622e+135 -1.04076e+135 -8.83454e+134 -1.23424e+135 -1.51189e+136 -5.14154e+135 -1.23007e+136 -3.40352e+135 -1.43481e+136 -5.82065e+135 -1.74656e+136 -9.15098e+134 -3.41935e+135 -5.48648e+135 -6.89823e+134 -1.38721e+136 -1.24625e+135 -1.53641e+135 -1.74612e+136 -1.85391e+136 -4.74715e+135 -7.0418e+134 -5.04905e+135 -1.45367e+136 -1.58524e+136 -3.43841e+135 -1.06116e+136 -7.24581e+133 -1.57138e+135 -1.76049e+134 -1.34051e+135 1.1942e+133 -3.53983e+134 -1.42626e+135 -4.74816e+133 -1.84267e+135 -5.71771e+133 -1.24714e+134 -2.82033e+134 -2.18762e+134 -1.50402e+135 -2.42827e+134 1.07674e+134 -9.06791e+133 -1.04714e+135 -1.02196e+135 -1.12676e+134 -1.43562e+134 -9.57992e+133 -1.43843e+135 -4.56622e+134 -1.525e+135 -1.56078e+134 -5.41163e+134 -2.80305e+134 -1.39674e+135 -5.57249e+134 -1.30243e+135 -2.19393e+134 -6.4169e+133 -8.79422e+134 -1.04057e+135 -6.76601e+133 -4.25843e+133 1.54409e+132 -1.30373e+133 -5.81091e+134 -9.50575e+133 -8.06902e+133 -1.1273e+134 -1.38089e+135 -4.69602e+134 -1.12348e+135 -3.1086e+134 -1.31048e+135 -5.31629e+134 -1.59522e+135 -8.35804e+133 -3.12306e+134 -5.01107e+134 -6.30049e+133 -1.26701e+135 -1.13826e+134 -1.40328e+134 -1.59482e+135 -1.69326e+135 -4.3358e+134 -6.43162e+133 -4.61155e+134 -1.32771e+135 -1.44788e+135 -3.14047e+134 -9.69206e+134 0.172806 0.0144482 -0.322401 -0.211384 -0.488438 -0.313725 -0.200238 0.388943 0.022293 -0.0333169 -0.125451 -0.54431 -0.503058 -0.122017 -0.189463 -0.737358 0.192735 -0.124443 -0.388505 0.0687766 0.0463781 -0.231106 0.0193755 -0.123919 0.015329 -0.216563 -0.354255 -0.230166 0.181379 -0.485565 -0.227679 -0.0891055 -0.210077 -0.320274 0.185529 0.0542235 0.149113 -0.220335 0.260344 -0.0544654 -0.145634 -0.0921595 -0.0490386 -0.229943 -0.0259794 -0.436215 -0.239745 0.0557238 -0.0868574 -0.0558352 0.141399 -0.483237 0.0392893 0.0574693 -0.164708 -0.631224 -0.0523613 0.0086764 0.042178 -0.0545711 0.347921 -0.23003 -0.458944 0.104737 -0.38853 -0.268333 0.423094 -0.135556 0.288339 -0.308959 0.686456 -0.452964 -0.0221479 0.637408 -0.400333 -0.287757 -0.39463 -0.670207 -0.655766 -0.237406 -0.402305 0.0427835 -0.0993164 -0.171992 -0.00360445 -0.0758078 0.347096 0.267729 -0.128181 -0.420803 -0.129648 0.28172 -0.417131 -0.405196 -0.108203 0.260924 -0.0462092 -0.292875 0.697431 -0.522581 -0.0215064 0.364852 -0.0825544 0.347191 -0.0550756 -0.0975081 -0.452861 -0.371609 0.353946 -0.339986 -0.0999213 -0.067146 -0.489444 -0.0753928 -0.157038 -0.148629 0.422034 -0.711476 0.348577 0.374788 0.101117 -0.727997 -0.211455 -0.174409 -0.451772 -0.104341 0.639322 -0.459372 -0.123114 -0.359082 -0.571678 -0.415584 0.850776 0.239298 0.676614 -0.0713121 0.509473 -0.438558 0.394424 0.921887 -0.516322 -0.36687 -0.452565 -0.688421 -0.688722 0.119695 -0.473006 0.604827 -0.147565 -0.0829157 0.528528 -0.0805801 0.774682 0.909101 0.159394 -0.486697 0.246178 0.980149 -0.380651 -0.43057 0.355993 0.512811 0.390403 -0.360175 0.528054 -0.611253 0.506619 0.971858 -0.112027 0.342164 -0.108291 -0.0836507 -0.515487 -0.442974 0.820097 -0.0476035 -0.0928222 0.460815 -0.539974 0.162105 -0.174184 0.237064 0.835938 -0.706415 0.707895 0.993885 0.524538 -0.74767 -0.282735 0.164818 -0.526098 -0.1099 0.906385 -0.515998 0.402827 -0.638908 -0.568518 -0.11374 0.627786 0.336158 0.347164 0.0827357 -0.210011 -0.3102 0.491211 0.531096 -0.25775 -0.353823 -0.363492 -0.272828 -0.385374 0.290144 -0.319644 0.00919516 -0.244785 -0.0765464 0.4953 -0.227957 0.5988 0.301393 0.181664 -0.341083 0.333488 0.357129 -0.250144 -0.306482 0.351735 0.328623 0.443862 -0.305944 -0.169512 -0.443092 0.411659 0.685365 -0.232375 -0.0750433 -0.212282 -0.182004 -0.38916 -0.370937 0.533454 0.11887 -0.187708 0.462726 -0.367651 0.096894 -0.235281 0.407244 0.630197 -0.412041 0.499906 0.705506 0.489926 -0.322548 -0.313856 0.309999 -0.262534 -0.21032 0.519965 -0.339891 0.465907 -0.366203 -0.33803 0.0886989 -0.140168 0.0859133 -0.224608 0.172691 -0.420391 0.217391 0.0955701 -0.184286 0.260292 0.109787 0.177979 0.343431 0.281789 0.143992 0.212328 -0.370477 0.0535499 0.0952796 0.0221986 0.0186234 -0.104973 -0.335968 0.0615234 0.188611 0.0778629 -0.321588 0.222058 0.217193 0.00476767 -0.175236 0.0672597 0.15443 -0.384863 0.249605 -0.0586283 -0.180201 0.0278701 -0.297029 0.0280072 0.0399779 0.192997 0.162606 -0.183019 0.181552 0.0427075 0.048673 0.228204 0.03297 0.0684488 0.124127 -0.134497 0.32406 -0.096715 -0.180387 0.0200999 0.365957 0.0836547 0.110487 0.24465 0.036012 -0.170899 0.219381 0.0964726 0.264342 0.292841 0.215685 0.000820312 0.000742188 0.00136719 0.00179688 0.00382812 0.00386719 0.00015625 0.00269531 0.00078125 0.00113281 0.00078125 0.00164062 0.00375 0.00179688 0.000429688 0.00167969 0.00101563 0.00265625 0.00222656 0.000625 0.00195313 0.000703125 0.00324219 0.003125 0.000703125 0.000820312 0.0025 0.000351562 0.00210938 7.8125e-05 0.00242187 0.000234375 0.0009375 0.00351563 0.00144531 0.00109375 0.00171875 0.000703125 0.00292969 0.00386719 0.00304688 0.00132813 0.00234375 0.00277344 0.00371094 0.00140625 0.00375 0.00367188 0.00351563 0.000351562 0.000742188 0.00265625 0 0.0009375 3.90625e-05 0.00171875 0.00195313 0.000234375 0.00148438 0.00359375 0.00378906 0.00347656 0.00339844 0.00375 0.00207031 0.00152344 0.000546875 0.00371094 0.00292969 0.00144531 0.00367188 0.0003125 0.00285156 0.00191406 0.000585937 0.00167969 0.00078125 0.0034375 0.00046875 0.00179688 0.00265625 0.00046875 0.000195313 0.00160156 0.000664063 0.000859375 0.00214844 0.00246094 0.00210938 0.00277344 0.00273438 0.00121094 0.00207031 0.000507813 0.00136719 0.00339844 0.00242187 0.00292969 0.00257813 0.00140625 0.00175781 0.00296875 0.00101563 0.000859375 0.000351562 0.00324219 0.00132813 0.00226562 0.00371094 0.00210938 0.00210938 3.90625e-05 0.000507813 0.00199219 0.00292969 0.000273438 0.000742188 0.0009375 0.00132813 0.00015625 0.00324219 0.000703125 0.0009375 0.00347656 0.00359375 0.00292969 0.00164062 0.00148438 0.00257813 0.00289062 0.000742188 0.00273438 0.237906 0.148325 0.0985333 -0.0586251 -0.24972 -0.275347 0.19618 0.275604 0.0254036 -0.105242 -0.167975 -0.149406 -0.111795 0.0726642 -0.129805 -0.14062 -0.0109199 -0.0739337 0.145173 -0.0310596 0.224528 0.101467 0.0788653 -0.0945351 0.147252 0.129191 -0.330411 -0.211338 0.238668 0.059592 0.161137 -0.131465 -0.109635 -0.095811 0.300229 0.216189 -0.0131635 -0.50839 0.0174709 -0.0713686 -0.155808 -0.15183 0.178218 -0.0487871 -0.0642719 0.118008 -0.15423 0.0534027 -0.116361 0.157194 0.230573 -0.266662 0.261093 0.219016 0.228928 -0.203514 -0.107768 0.123846 -0.011291 -0.0782433 0.281572 -0.129519 0.116363 0.0925148 -0.242651 -0.131184 0.186996 0.1249 -0.0441854 -0.322332 -0.768313 -0.838399 0.23076 0.308002 -0.0591193 -0.51566 -0.640728 -0.576777 -0.569679 -0.0196555 -0.550403 -0.0137567 -0.419597 -0.356783 -0.0558991 -0.461672 0.152915 0.0571851 -0.0475156 -0.477626 0.120195 0.0806188 -0.862567 -0.713917 0.187683 -0.114447 0.130883 -0.560179 -0.575103 -0.514054 0.304324 0.14358 -0.466704 -0.896575 -0.418988 -0.394395 -0.599269 -0.596227 0.0828455 -0.313837 -0.411431 -0.0976959 -0.604454 -0.139141 -0.467895 0.173964 0.166479 -0.802138 0.263748 0.14925 0.253216 -0.621494 -0.505878 0.0748445 -0.35265 -0.417355 0.353961 -0.549881 -0.0805881 0.205894 -0.767703 -0.484184 -0.0100506 -0.281826 -0.268679 -0.699051 -0.386226 -0.830914 -0.313663 0.207772 -0.684173 -0.136651 -0.486122 -0.831429 -0.944683 -0.484254 -0.443739 0.254006 0.238984 -0.425077 -0.351146 0.111946 -0.052913 0.0376714 -0.252571 -0.254855 -0.268133 0.0262157 -0.959006 -0.665807 0.0193584 -0.381342 -0.281661 -0.361823 -0.404147 -0.746104 0.140085 -0.117526 0.192312 -0.889998 0.30838 -0.172005 -0.497382 -0.390027 -0.17083 -0.731009 -0.105591 -0.41858 -0.574385 -0.120228 -0.311347 -0.339377 -0.0377661 -0.864312 0.146673 -0.120601 -0.179985 -0.882654 -0.165016 -0.338591 -0.389013 -0.148788 0.240849 -0.469899 -0.459016 -0.878244 -0.829637 -0.934705 -4.21743e+134 -9.14622e+135 -1.0247e+135 -7.80248e+135 6.95084e+133 -2.06037e+135 -8.30155e+135 -2.76367e+134 -1.07253e+136 -3.328e+134 -7.25901e+134 -1.64158e+135 -1.2733e+135 -8.75417e+135 -1.41338e+135 6.26719e+134 -5.27799e+134 -6.0949e+135 -5.9483e+135 -6.55832e+134 -8.35604e+134 -5.576e+134 -8.37241e+135 -2.65777e+135 -8.8763e+135 -9.08452e+134 -3.14984e+135 -1.63152e+135 -8.12973e+135 -3.24347e+135 -7.58084e+135 -1.27698e+135 -3.73496e+134 -5.11869e+135 -6.05663e+135 -3.93817e+134 -2.47862e+134 8.98738e+132 -7.58837e+133 -3.38225e+135 -5.53283e+134 -4.69658e+134 -6.56144e+134 -8.03746e+135 -2.73333e+135 -6.53922e+135 -1.80936e+135 -7.62768e+135 -3.09435e+135 -9.28501e+135 -4.86481e+134 -1.81778e+135 -2.9167e+135 -3.66721e+134 -7.37464e+135 -6.62527e+134 -8.1678e+134 -9.28265e+135 -9.85566e+135 -2.52366e+135 -3.74353e+134 -2.68416e+135 -7.72794e+135 -8.42739e+135 -1.82791e+135 -5.64127e+135 -1.15933e+135 -2.5142e+136 -2.81679e+135 -2.14482e+136 1.91072e+134 -5.66374e+135 -2.28201e+136 -7.59706e+134 -2.94827e+136 -9.14833e+134 -1.99543e+135 -4.51253e+135 -3.50018e+135 -2.40643e+136 -3.88523e+135 1.72279e+135 -1.45086e+135 -1.67543e+136 -1.63513e+136 -1.80282e+135 -2.29699e+135 -1.53279e+135 -2.30149e+136 -7.30595e+135 -2.44001e+136 -2.49724e+135 -8.6586e+135 -4.48489e+135 -2.23478e+136 -8.91598e+135 -2.0839e+136 -3.51028e+135 -1.0267e+135 -1.40708e+136 -1.66491e+136 -1.08256e+135 -6.81349e+134 2.47054e+133 -2.08597e+134 -9.29746e+135 -1.52092e+135 -1.29104e+135 -1.80367e+135 -2.20942e+136 -7.51364e+135 -1.79757e+136 -4.97376e+135 -2.09677e+136 -8.50606e+135 -2.55236e+136 -1.33729e+135 -4.99689e+135 -8.01771e+135 -1.00808e+135 -2.02721e+136 -1.82122e+135 -2.24525e+135 -2.55171e+136 -2.70922e+136 -6.93729e+135 -1.02906e+135 -7.37847e+135 -2.12433e+136 -2.3166e+136 -5.02475e+135 -1.55073e+136 -0.00277842 -0.0557483 0.285577 0.166677 -0.899437 -0.12145 0.0901853 -0.256487 0.216088 -0.315658 -0.210639 0.248205 0.0624475 0.0455955 -0.156371 0.309054 -0.466373 -0.00232358 0.155551 -0.455893 0.0394693 0.0354379 -0.105745 -0.120219 -0.0735807 0.119019 0.222873 -0.128102 -0.326366 0.530283 0.0778241 -0.194136 -0.506662 -0.129436 -0.350949 0.152708 -0.51074 -0.017413 -0.557965 -0.150909 -0.202426 -0.232006 0.162946 0.205328 -0.194053 0.205664 -0.16939 -0.169458 -0.114628 0.0283601 0.0122295 -0.07815 -0.132631 0.158089 0.0181058 0.409697 -0.283247 -0.0563114 -0.24836 -0.185267 -0.262005 -0.126209 0.263599 0.623456 -0.100092 0.620262 -0.169531 -0.346661 0.276644 0.256198 1.07464 0.563658 -0.237121 -0.421341 -0.752437 0.0502647 0.203178 0.0492942 -0.368845 -0.11194 0.0817341 0.985937 -0.586792 0.138508 0.118383 -0.55824 -0.0478325 -0.0171967 -0.281331 -0.0422136 -0.363694 -0.0541279 0.787778 0.327445 -0.822572 0.509789 -0.163243 0.096549 0.739656 -0.323663 -0.982448 -0.097076 -0.749417 0.297302 -0.840929 -0.0117965 0.213085 0.194627 0.0680651 0.257753 -0.0898562 0.166368 0.117727 -0.326347 0.175321 -0.283016 -0.155462 0.687999 -0.326867 -0.109442 -0.32079 0.456642 0.0379614 -0.316945 -0.644227 -0.0218548 -0.436872 0.0555411 0.136336 -1.33906 0.60032 0.417656 -0.149485 -0.546834 -0.219069 -0.248548 -0.166096 0.322823 -0.596591 -0.551098 0.092277 0.377923 0.300735 0.509255 0.27796 -0.416306 0.385772 -0.900784 0.561689 -0.195218 -0.237663 0.289028 -0.0833606 -0.423098 -0.391431 0.374994 -0.541496 -0.380176 -0.100093 0.237566 -0.652096 -0.318841 -0.491596 0.206787 -0.0661352 -0.0042008 -0.682084 -0.0297893 0.504533 -0.828386 0.691921 -0.097121 0.438192 0.329467 -0.0565761 -0.273215 -0.0329536 -0.278789 0.357706 -0.328375 -0.0460319 -0.572373 -0.113991 0.513066 -0.390727 -0.0130473 -0.609693 0.566835 0.206823 -0.495109 0.154371 -0.0473036 -0.564994 0.361261 -0.337084 0.0152233 0.58186 -0.458932 -0.408688 -0.253969 -0.720618 -0.243844 -0.738341 0.00207898 -0.339606 -0.486323 0.708498 0.506316 0.325278 0.819556 1.04307 -0.264338 0.471044 -1.86219 0.797174 -0.0817298 -0.348061 0.748202 -0.390445 -0.805554 -0.12726 0.643093 -0.252478 -0.644679 -0.36071 0.151034 -0.102159 -0.766796 -0.303095 0.284742 -0.539337 0.682042 -0.148094 -0.312 0.9209 -0.976407 1.01095 0.168983 0.480025 0.35935 -0.455297 -0.254998 0.274379 -0.306096 0.509256 0.0186579 0.0892886 -0.300889 -0.431344 0.580379 -0.281636 -0.288823 -0.383161 0.643853 0.382257 -0.236009 0.852249 0.227378 -0.433058 0.558357 -0.228699 1.39409 0.297243 -0.354317 0.115861 0.198578 0.0799305 -0.0907201 -0.128875 -0.383029 0.117319 0.199414 0.64085 -0.11593 -0.222932 0.0123628 0.162327 0.092835 -0.154746 -0.670285 0.286563 -0.104257 -0.0258491 0.171694 0.0839497 -0.0503744 0.137484 0.0504815 0.195705 -0.0685444 -0.385024 -0.290288 0.361705 0.00275516 0.0734444 -0.153271 -0.160243 0.241334 0.379191 0.0612522 0.306306 -0.00318969 0.427397 -0.0872487 -0.217199 -0.214481 0.0649011 -0.0811582 -0.0449545 -0.0584625 -0.185517 0.154132 -0.170062 0.185945 0.102753 -0.30711 0.124962 0.0546117 0.127749 -0.108156 -0.134903 0.190273 0.610745 -0.0967375 0.151879 -0.0981195 -0.0463694 0.931201 -0.416762 -0.180548 0.373496 0.0965614 0.135234 -0.178202 0.377511 -0.549306 0.189221 0.573695 -0.198635 -0.396044 -0.513059 -0.481143 -0.409242 0.00592416 -0.480005 -0.163806 -0.206614 -0.126585 0.142058 -0.198276 0.321012 0.118883 0.0163787 -0.461743 0.0873844 0.132643 -0.415849 -0.492405 -0.0117697 0.0898413 0.152568 -0.376098 0.37615 -0.32041 -0.00481454 0.266097 -0.217845 -0.00930132 -0.183512 -0.129999 -0.577894 -0.49755 0.245244 -0.183834 -0.147485 0.0816903 -0.563313 -0.0040262 -0.196313 0.122545 0.377811 -0.724304 0.4018 0.269063 0.247652 -0.539385 -0.300706 0.0636669 -0.279018 -0.15281 0.576401 -0.50698 0.0554543 -0.275833 -0.670805 -0.23651 0.772841 0.119204 0.500914 -0.356881 0.441147 -0.75919 0.199091 0.977082 -0.851116 -0.454411 -0.631161 -1.02527 -1.04716 -0.111793 -0.645255 0.609848 -0.010096 -0.26477 0.277545 0.0255519 0.660665 0.784138 0.0786466 -0.605275 0.143548 0.826124 -0.84093 -0.688232 0.510866 0.358835 0.20117 -0.517903 0.566236 -0.955352 0.696683 0.810753 0.05038 0.201718 0.0999731 -0.168095 -0.682798 -0.600481 0.68562 -0.35296 -0.141369 0.197092 -0.731827 0.15166 -0.32258 0.045963 0.761506 -1.01595 0.644883 0.836039 0.411129 -1.14314 -0.372631 0.0255384 -0.839273 -0.177498 0.93978 -0.692088 0.12427 -0.944157 -0.867946 -0.557954 1.02863 0.415652 0.776386 0.0705706 0.286456 -0.485412 0.677686 0.896981 -0.765969 -0.595464 -0.614788 -0.61081 -0.755323 0.327422 -0.607381 0.538755 -0.426475 -0.123431 0.75786 -0.365422 0.979082 0.764702 0.205759 -0.653513 0.417869 0.826888 -0.360901 -0.526665 0.467505 0.756071 0.622002 -0.527367 0.333351 -0.813557 0.613025 1.14636 -0.400906 0.157131 -0.392558 -0.261812 -0.683504 -0.622465 0.953597 0.11953 -0.28778 0.705305 -0.67723 0.111628 -0.333717 0.502021 1.03661 -0.727358 0.799577 1.17425 0.729969 -0.669565 -0.504326 0.353249 -0.718543 -0.30293 0.866048 -0.646828 0.670084 -0.886161 -0.622002 0.0739156 -0.514331 -0.0178039 -0.643329 0.0230661 -1.10453 0.224714 -0.152458 -0.489866 0.655684 0.347539 0.356581 0.554274 0.534224 0.000650133 0.445464 -0.917668 0.396702 0.0558363 -0.319807 0.294342 -0.471146 -0.711513 0.0408593 0.481105 -0.0183194 -0.70137 0.0792154 0.316946 0.0474383 -0.633671 -0.170036 0.327442 -0.993528 0.506747 -0.0767542 -0.6117 0.370008 -0.864332 0.41491 0.113553 0.430324 0.36204 -0.587034 0.0137785 0.167776 -0.29388 0.463372 0.0671519 0.109608 -0.0416628 -0.517165 0.481611 -0.355053 -0.622077 -0.217289 0.550754 0.268498 0.0258383 0.599634 0.133563 -0.463326 0.470485 -0.233926 0.685414 0.44213 -0.0280963 0.00296875 0.000351562 0.00378906 0.00304688 0.000546875 0.00246094 0.000742188 0.0015625 0.00308594 0.00316406 0.00367188 0.000117187 0.00335937 0.001875 0.00347656 0.00179688 0.00199219 0.00367188 0.00300781 0.00164062 0.00183594 0.000390625 0.00386719 0.000859375 0.00167969 0.00128906 0.00359375 0.000390625 0.00203125 0.00300781 0.000976563 0.000507813 0.000898438 0.000820312 0.000351562 0.00167969 0.00355469 0.0009375 0.00269531 0.000898438 0.0009375 0.00363281 0.00304688 0.00191406 0.00253906 0.00210938 0.00121094 0.00324219 0.000429688 0.00136719 0.000195313 0.000820312 0.00355469 0.00320313 0.00355469 0.00371094 0.00347656 0.000664063 0.00101563 0.00289062 0.00277344 0.00261719 0.000117187 0.00320313 7.8125e-05 0.00371094 0.000117187 0.00210938 0.0009375 0.00363281 0.000117187 0.00125 0.000820312 0.00101563 0.00375 0.00132813 0.00128906 0.00210938 0.00246094 0.00269531 0.000234375 0.00015625 0.0003125 0.000546875 0.00320313 0.00367188 0.00109375 0.00101563 0.00222656 0.00378906 0.00257813 0.000234375 0.00109375 0.00214844 0.00328125 0.00148438 0.00109375 0.00152344 0.00285156 0.00117187 0.00328125 0.00164062 0.00363281 0.00152344 0.0015625 0.00371094 0.000898438 0.00214844 0.00125 0.0034375 0.00351563 0.000585937 0.00207031 0.00183594 0.00167969 0.00339844 0.00335937 0.000507813 7.8125e-05 0.00230469 0.00253906 0.000234375 0.00261719 0.00253906 0.00136719 0.00238281 0.000429688 0.00328125 0.000664063 0.000117187 0.000117187 0.00324219 0.178939 0.160753 0.0983945 0.0238088 -0.188985 -0.156457 0.197787 0.19755 0.0931818 -0.115279 -0.11857 -0.0459415 0.00754097 0.114976 -0.0828479 -0.103017 -0.0781199 -0.0179926 0.135482 -0.0862091 0.174292 0.087632 0.0918598 -0.0761913 0.15469 0.0996751 -0.155543 -0.127339 0.187231 0.0788644 0.163675 -0.0919623 -0.0892772 0.0202395 0.21972 0.160817 -0.087634 -0.28431 -0.0785743 -0.0558411 -0.114031 -0.117197 0.143226 0.0319551 -0.0619516 0.119921 -0.0951431 0.0556778 -0.0785162 0.175111 0.177287 -0.148109 0.194724 0.160702 0.206298 -0.0872458 -0.104137 0.145618 0.0672144 -0.0658842 0.201295 -0.0804997 0.125105 0.123867 -0.137322 0.00333405 -0.0316384 0.270328 -0.293938 -0.0900384 -1.11519 -0.506972 0.314227 0.100359 0.431858 -0.249641 -0.287369 -0.0111371 0.1158 0.170819 -0.176786 -0.458355 -0.201684 -0.162016 -0.1102 -0.259847 -0.0355516 -0.233664 0.100371 -0.117262 0.255799 -0.20142 -0.552524 -0.359069 0.307542 -0.336414 0.174174 -0.247891 -0.839665 0.151393 0.366079 -0.129003 -0.246643 -1.21805 -0.205114 -0.232298 -0.227591 -0.268581 -0.16777 -0.0745894 -0.234082 -0.124175 -0.191527 -0.00431311 -0.274461 0.327189 -0.0493077 -0.314478 0.127636 -0.12714 0.262419 -0.0907869 -0.272893 0.252053 0.267887 -0.249934 0.148088 -0.15375 -0.0556393 0.530485 -0.341432 -0.186842 -0.254414 -0.215308 -0.611719 -0.399691 -0.818467 -0.288109 -0.288544 -0.0386486 -0.13755 0.132079 -0.0338436 -0.00394764 0.0146089 -0.296272 0.037842 -0.365462 0.244255 -0.197897 -0.449546 0.114921 -0.252433 -0.483034 -0.161675 0.210936 -0.213564 -0.457597 -0.41757 -0.157059 -0.0719926 -0.687567 -0.293663 -0.010294 -0.894751 0.0293707 0.0121494 -0.435756 0.130237 -1.63059 0.181629 -0.0417071 0.0173181 0.0074732 -0.470797 -0.43391 0.0141563 -0.488057 0.0212911 -0.0965391 -0.111796 -0.255784 -0.291786 -0.17456 0.00678199 -0.44134 -0.234841 -0.0914445 0.0579894 -0.223154 0.231361 -0.0177152 0.0359146 0.0799491 -0.478836 -0.0767737 -0.234923 -0.484165 -3.64148e+134 -7.89718e+135 -8.8476e+134 -6.73695e+135 6.00161e+133 -1.77899e+135 -7.16786e+135 -2.38626e+134 -9.2606e+135 -2.87351e+134 -6.26769e+134 -1.4174e+135 -1.09942e+135 -7.55867e+135 -1.22036e+135 5.41132e+134 -4.5572e+134 -5.26256e+135 -5.13598e+135 -5.66269e+134 -7.2149e+134 -4.81452e+134 -7.22904e+135 -2.29482e+135 -7.66412e+135 -7.8439e+134 -2.71969e+135 -1.40871e+135 -7.0195e+135 -2.80053e+135 -6.54557e+135 -1.10259e+135 -3.2249e+134 -4.41966e+135 -5.22951e+135 -3.40036e+134 -2.14013e+134 7.76002e+132 -6.55207e+133 -2.92035e+135 -4.77725e+134 -4.0552e+134 -5.66538e+134 -6.93983e+135 -2.36005e+135 -5.6462e+135 -1.56227e+135 -6.58602e+135 -2.67178e+135 -8.01702e+135 -4.20045e+134 -1.56954e+135 -2.51838e+135 -3.1664e+134 -6.36753e+135 -5.7205e+134 -7.05237e+134 -8.01497e+135 -8.50974e+135 -2.17902e+135 -3.2323e+134 -2.3176e+135 -6.67258e+135 -7.27651e+135 -1.57829e+135 -4.87088e+135 -1.20949e+135 -2.62299e+136 -2.93867e+135 -2.23763e+136 1.99339e+134 -5.9088e+135 -2.38075e+136 -7.92578e+134 -3.07584e+136 -9.54417e+134 -2.08177e+135 -4.70779e+135 -3.65163e+135 -2.51056e+136 -4.05334e+135 1.79733e+135 -1.51364e+135 -1.74792e+136 -1.70588e+136 -1.88082e+135 -2.39638e+135 -1.59911e+135 -2.40107e+136 -7.62207e+135 -2.54558e+136 -2.6053e+135 -9.03326e+135 -4.67894e+135 -2.33148e+136 -9.30177e+135 -2.17406e+136 -3.66217e+135 -1.07113e+135 -1.46796e+136 -1.73694e+136 -1.1294e+135 -7.1083e+134 2.57744e+133 -2.17622e+134 -9.69975e+135 -1.58673e+135 -1.34691e+135 -1.88172e+135 -2.30502e+136 -7.83875e+135 -1.87535e+136 -5.18897e+135 -2.1875e+136 -8.87411e+135 -2.66279e+136 -1.39515e+135 -5.2131e+135 -8.36463e+135 -1.0517e+135 -2.11493e+136 -1.90002e+135 -2.3424e+135 -2.66212e+136 -2.82645e+136 -7.23746e+135 -1.07359e+135 -7.69773e+135 -2.21625e+136 -2.41684e+136 -5.24217e+135 -1.61783e+136 -0.120784 0.491739 0.171123 0.275838 -0.815989 -0.345636 0.584396 -0.18961 1.02584 -0.555787 -0.410182 0.0118567 0.15435 0.519053 -0.236511 -0.00645528 -0.63709 0.0346866 0.337578 -0.790258 -0.0702666 0.158928 0.292723 -0.27072 0.447026 0.113965 -0.0537276 -0.311363 -0.070554 0.0413471 0.481 -0.323369 -0.576334 0.341406 -0.252964 -0.206836 -0.893936 -0.911941 -0.882803 -0.237907 -0.36971 -0.445453 -0.0302703 0.325789 -0.300761 0.365538 -0.293777 0.100163 -0.281658 0.618324 -0.0793013 -0.299151 -0.11133 -0.2374 0.430825 0.0226737 -0.506361 0.507313 0.551202 -0.326747 -0.206977 -0.241654 0.484294 1.21673 -0.181689 0.477736 0.256425 -0.185082 1.0057 -0.224141 1.09581 -0.347439 -0.195733 0.0116439 -0.310672 -0.394977 -0.440523 -0.739919 -0.834822 -0.195034 -0.427524 1.11865 -0.288221 -0.215146 0.157279 -0.432936 0.255602 1.16123 -0.11556 -0.509733 -0.186071 0.980149 -0.199694 -0.391788 -0.505326 0.831719 -0.103936 -0.378902 0.946339 -0.40663 -0.675768 0.398118 -0.488063 0.114554 -0.406434 -0.242493 -0.456908 -0.419698 0.619847 -0.219749 -0.266447 0.10152 -0.512775 -0.107118 -0.271474 -0.230908 0.322688 -0.395335 -0.172043 0.371937 -0.118353 -0.555196 -0.361274 -0.192143 -0.336275 -0.266744 -0.104288 -0.498607 -0.010905 -0.976426 -0.225436 -0.212625 0.454301 -0.363978 0.728283 0.0838987 0.831082 0.175993 -0.386303 0.0103268 -0.89394 -0.280435 -0.11075 -0.241963 -0.33665 -0.200441 -0.162761 0.58229 -0.141441 -0.0804263 0.0758166 -0.314835 0.383287 0.770247 -0.24427 -0.350597 -0.357701 0.756224 0.0882228 0.02906 -0.622215 0.646983 -0.281707 -0.151087 0.782052 -0.263041 -0.665829 0.768664 -0.242327 0.264604 -0.124298 -0.242973 -0.157155 -0.149869 0.71645 0.0921078 -0.273827 0.0587189 -0.201683 -0.253332 -0.148507 -0.391945 0.520568 -0.13679 -0.222579 0.793174 -0.352309 -0.285927 -0.262499 -0.319809 -0.810412 -0.264088 -0.0987489 -0.241723 -0.0342035 -1.44358 0.147078 0.122617 -0.440948 -0.392126 -0.429519 -0.124498 0.265525 0.341335 -0.559904 -0.443787 -0.283179 0.433928 0.375892 0.222549 0.277399 -0.310441 0.357499 -0.740056 0.502905 0.0151301 -0.657392 0.518845 -0.51656 -0.193659 -0.195524 0.337967 -0.388173 -0.133655 0.151521 0.330265 -0.517373 -0.528291 -0.535782 0.282641 0.391737 0.0464856 -0.690919 -0.290396 0.5881 -0.0137788 0.595039 0.183463 0.465703 0.376553 -0.367358 -0.1579 0.255581 -0.601036 0.401476 -0.0513061 0.155719 -0.440153 -0.441855 0.402908 -0.668092 -0.272856 -0.648471 0.122368 0.349544 -0.340777 -0.00828369 0.228264 -0.485543 0.348245 -0.548852 0.0409208 0.420244 -0.0716595 -0.397497 -0.259032 -0.166306 -0.249262 -0.292394 -0.149646 -0.529218 -0.245766 0.190105 0.143334 0.0816141 0.280418 0.365833 -0.317205 0.158402 -0.36798 0.499724 -0.150686 -0.632453 0.388523 -0.417253 -0.231517 -0.106154 0.300972 -0.239846 -0.302628 -0.21449 -0.024256 0.0197279 -0.239615 -0.52599 0.0765886 -0.381038 0.296474 -0.0264868 -0.444278 0.52055 -0.195256 0.597751 -0.0304174 0.140675 0.0822665 -0.386835 -0.278879 0.0506729 -0.650591 0.161859 0.0113954 -0.102746 -0.376527 -0.398681 0.0561318 -0.421411 -0.451731 -0.482494 0.224865 0.0595348 -0.222695 0.262675 -0.0119409 -0.295868 0.206761 -0.672422 0.489465 -0.0523324 -0.273135 -0.265078 -0.427984 -0.279064 -0.522978 0.550833 -0.42148 -0.558522 -0.0886491 -0.349845 -0.00778253 -0.279882 -0.191957 -0.251864 -0.496634 -0.294661 -0.142416 0.364293 -0.239589 -0.466804 0.372018 -0.290297 -0.0244871 -0.265014 -0.108952 -0.402622 -0.0279515 -0.496476 -0.363427 -0.256743 -0.384822 -0.488366 -0.195537 0.175777 -0.282592 -0.28932 -0.330169 0.439695 -0.225985 0.479676 0.00819315 -0.294661 -0.224581 -0.298451 -0.575202 0.064685 -0.526847 -0.320624 -0.0943461 -0.0837211 -0.520178 -0.266214 -0.315099 -0.128549 -0.340147 -0.442355 -0.175815 0.0274862 -0.433462 -0.297072 0.0515222 -0.0846674 -0.245307 -0.619534 -0.343833 -0.515052 -0.734037 0.451388 0.00983749 0.139304 -0.321102 0.364272 -0.539643 -0.046603 0.727468 -0.70328 -0.236672 -0.412413 -0.753859 -0.795433 -0.164494 -0.449112 0.453647 0.141801 -0.198429 -0.0100784 0.183848 0.339472 0.471381 0.0489599 -0.406594 0.033725 0.485446 -0.610935 -0.474581 0.355592 -0.00527673 -0.025417 -0.333301 0.440744 -0.719744 0.459009 0.419943 0.20804 0.28333 0.224713 -0.0672572 -0.444318 -0.37916 0.315693 -0.326395 -0.0223618 -0.0709936 -0.505121 0.147147 -0.204308 -0.0935272 0.446845 -0.694073 0.340316 0.432823 0.115722 -0.806986 -0.185788 -0.0497408 -0.664673 -0.065023 0.690647 -0.482794 -0.130633 -0.819537 -0.614299 -0.470089 1.02434 0.258203 0.900745 -0.06923 0.702292 -0.544449 0.526866 0.905888 -1.26767 -0.618139 -0.684921 -0.834096 -1.05482 0.135884 -0.720039 0.966121 -0.304939 -0.190438 0.640742 -0.209264 0.960408 1.00438 0.112617 -0.755733 0.271949 1.06406 -0.462661 -0.605273 0.447565 0.90817 0.470487 -0.597216 0.724495 -1.11764 0.633825 1.1938 -0.228762 0.28345 -0.227301 -0.249688 -0.768863 -0.68411 1.00197 -0.0344881 -0.26058 0.584701 -0.790859 0.0966038 -0.348765 0.31193 1.03978 -0.848465 0.750024 1.22812 0.629547 -0.872599 -0.512906 0.173036 -1.16619 -0.279834 0.864638 -0.768912 0.517964 -1.38034 -0.734476 -0.136825 -0.634801 -0.0886114 -0.758588 -0.102342 -1.28789 0.145465 -0.29399 -0.566701 0.749646 0.4141 0.371778 0.532248 0.558101 -0.114535 0.475797 -1.04781 0.523541 0.00633195 -0.48402 0.402965 -0.601578 -0.772584 0.00703084 0.540652 -0.0854021 -0.767658 -0.0662587 0.277516 0.0664472 -0.788058 -0.298207 0.346272 -1.14894 0.54271 -0.0632663 -0.74818 0.506324 -1.03957 0.570823 0.127667 0.460849 0.387613 -0.707776 -0.125654 0.199524 -0.468064 0.487173 0.0686314 0.0997425 -0.157178 -0.643088 0.436544 -0.440427 -0.760291 -0.330639 0.511068 0.313905 -0.044233 0.681555 0.156681 -0.542107 0.502943 -0.413535 0.789917 0.403606 -0.212395 0.00210938 0.00210938 0.00324219 0.00183594 0.00152344 0.000742188 0.00078125 0.000390625 0.00226562 0.00332031 0.00113281 0.00359375 0.00113281 0.00355469 0.00136719 0.00160156 0.00101563 0.00273438 0.00253906 0.00335937 0.0015625 0.00304688 0.000585937 0.00371094 0.00347656 0.000234375 0.00324219 0.000703125 0.00347656 0.00351563 0.00125 0.00234375 0.00367188 0.00351563 0.00046875 0.00078125 0.00226562 0.00164062 0.003125 0.00269531 0.00164062 0.0015625 0.00269531 0.000273438 0.000625 0.00191406 0.00316406 0.00316406 0.00246094 0.00234375 0.00242187 0.00128906 0.000546875 0.00234375 7.8125e-05 0.0015625 0.00335937 0.00046875 0.00125 0.000625 0.0034375 0.0025 0.00179688 0.00183594 7.8125e-05 0.000195313 0.00234375 0.00382812 0.00078125 0.00128906 0.00140625 0.00179688 0.00230469 0 0.00210938 0.000820312 0.00160156 0.000820312 0.000703125 0.00363281 0.0021875 0.00191406 0.000585937 0.003125 0.00121094 0.00332031 0.00320313 0.000898438 0.000664063 0.00121094 0.00371094 0.000820312 0.00113281 0.000625 0.00078125 0.00195313 0.000976563 0.000585937 0.0003125 0.000976563 0.00324219 0.00199219 0.00128906 0.00238281 0.00175781 0.001875 0.00191406 0.00230469 0.0009375 0.00386719 0.00222656 0.00269531 0.00183594 0.00207031 0.000117187 0.00347656 0.00160156 0.00167969 0.00210938 0.00144531 0 0.00261719 0.000625 0.00347656 0.0015625 0.000664063 0.00121094 0.000703125 0.00167969 0.000117187 0.00246094 0.00289062 0.0391308 0.060017 0.0202921 0.0283151 -0.089917 -0.0561247 0.0763052 0.0470718 0.0419161 -0.0720177 -0.053193 0.0152839 0.0453627 0.0566646 -0.0324558 -0.0225366 -0.0897422 -0.00588541 0.0197047 -0.086151 0.0341464 0.0255896 0.0293535 -0.0356643 0.0572329 0.0261963 -0.0313578 -0.0448991 0.0393701 0.0203168 0.0506318 -0.0468736 -0.0386589 0.0566511 0.0401853 0.0324971 -0.0988066 -0.0750984 -0.102727 -0.0379645 -0.0453556 -0.0567837 0.0247328 0.0298096 -0.046503 0.0168877 -0.0300564 0.00322548 -0.0385593 0.0781552 0.0381906 -0.0368497 0.0396015 0.0295482 0.059758 0.00289229 -0.0661655 0.0591476 0.045938 -0.046401 0.0497108 -0.0285423 0.0241789 0.0499229 -0.0424967 0.0364294 0.190563 0.401255 0.0507758 0.105001 -0.822623 -0.300555 0.481927 0.272 0.279295 -0.295038 -0.222675 0.128871 0.272316 0.32159 -0.137178 -0.134157 -0.35394 -0.0166619 0.0711779 -0.355654 0.176449 0.120325 0.209453 -0.138262 0.381578 0.133063 -0.232758 -0.218332 0.380655 0.0381593 0.312581 -0.185112 -0.531495 0.314436 0.442433 0.1195 -0.402554 -0.625517 -0.410794 -0.16095 -0.209941 -0.234142 0.0923975 0.124221 -0.195295 0.0493555 -0.140464 0.0785821 -0.178145 0.477012 0.180729 -0.149458 0.255859 0.116981 0.411572 0.06242 -0.26594 0.382551 0.280923 -0.198554 0.294195 -0.116473 0.110642 0.0597743 -0.202424 0.106286 0.0122051 0.273484 -0.557131 0.11936 -1.88771 0.435234 0.170086 0.211866 1.09185 0.43045 0.554051 0.860207 1.01821 0.211881 0.639404 -1.23856 0.222049 0.229892 -0.0925138 0.116695 0.027839 -0.658741 0.286466 0.690929 0.254594 -0.597123 0.566481 0.526477 0.302527 -0.734165 0.104341 0.51715 -1.81081 0.925639 0.306047 -0.244831 0.0425837 -1.87804 0.00531693 0.279715 0.5986 0.515933 -0.280853 0.101385 0.313418 -0.135838 0.678859 0.27456 0.245797 0.239746 -0.01944 0.707813 0.271963 -0.261989 0.177621 0.833295 0.36107 0.292817 1.26566 0.268586 0.292223 0.688144 -0.0981199 1.0177 0.563557 0.548085 -1.44916e+134 -3.14275e+135 -3.52098e+134 -2.68103e+135 2.3884e+133 -7.07967e+134 -2.85252e+135 -9.49632e+133 -3.68534e+135 -1.14354e+134 -2.49429e+134 -5.64067e+134 -4.37523e+134 -3.00804e+135 -4.85654e+134 2.15348e+134 -1.81358e+134 -2.09428e+135 -2.04391e+135 -2.25352e+134 -2.87124e+134 -1.91598e+134 -2.87686e+135 -9.13244e+134 -3.05001e+135 -3.12155e+134 -1.08233e+135 -5.60611e+134 -2.79348e+135 -1.1145e+135 -2.60487e+135 -4.38786e+134 -1.28338e+134 -1.75884e+135 -2.08113e+135 -1.3532e+134 -8.51686e+133 3.08817e+132 -2.60746e+133 -1.16218e+135 -1.90115e+134 -1.6138e+134 -2.25459e+134 -2.76177e+135 -9.39205e+134 -2.24696e+135 -6.2172e+134 -2.62097e+135 -1.06326e+135 -3.19045e+135 -1.67161e+134 -6.24611e+134 -1.00221e+135 -1.2601e+134 -2.53402e+135 -2.27652e+134 -2.80656e+134 -3.18963e+135 -3.38653e+135 -8.67161e+134 -1.28632e+134 -9.22309e+134 -2.65541e+135 -2.89576e+135 -6.28094e+134 -1.93841e+135 -1.36184e+135 -2.95338e+136 -3.30882e+135 -2.51948e+136 2.24448e+134 -6.65307e+135 -2.68063e+136 -8.92411e+134 -3.46328e+136 -1.07464e+135 -2.34399e+135 -5.30078e+135 -4.11159e+135 -2.82679e+136 -4.5639e+135 2.02372e+135 -1.7043e+135 -1.96809e+136 -1.92075e+136 -2.11773e+135 -2.69823e+135 -1.80053e+135 -2.70351e+136 -8.58215e+135 -2.86622e+136 -2.93346e+135 -1.01711e+136 -5.2683e+135 -2.62515e+136 -1.04734e+136 -2.44791e+136 -4.12346e+135 -1.20605e+135 -1.65286e+136 -1.95573e+136 -1.27166e+135 -8.00366e+134 2.90209e+133 -2.45034e+134 -1.09215e+136 -1.78659e+135 -1.51656e+135 -2.11874e+135 -2.59536e+136 -8.82612e+135 -2.11156e+136 -5.84257e+135 -2.46304e+136 -9.99189e+135 -2.9982e+136 -1.57088e+135 -5.86974e+135 -9.41824e+135 -1.18417e+135 -2.38133e+136 -2.13935e+135 -2.63744e+135 -2.99744e+136 -3.18247e+136 -8.14909e+135 -1.20882e+135 -8.66734e+135 -2.49541e+136 -2.72127e+136 -5.90247e+135 -1.82161e+136 -2.69395e+134 -5.8423e+135 -6.54542e+134 -4.98397e+135 4.43997e+133 -1.31609e+135 -5.30275e+135 -1.76534e+134 -6.85096e+135 -2.12581e+134 -4.63681e+134 -1.04859e+135 -8.13344e+134 -5.59187e+135 -9.02818e+134 4.00327e+134 -3.3714e+134 -3.89322e+135 -3.79958e+135 -4.18924e+134 -5.33756e+134 -3.56176e+134 -5.34801e+135 -1.6977e+135 -5.66988e+135 -5.80289e+134 -2.01202e+135 -1.04216e+135 -5.193e+135 -2.07182e+135 -4.84239e+135 -8.15691e+134 -2.38577e+134 -3.26965e+135 -3.86877e+135 -2.51557e+134 -1.58326e+134 5.74083e+132 -4.8472e+133 -2.16047e+135 -3.53419e+134 -3.00002e+134 -4.19123e+134 -5.13406e+135 -1.74596e+135 -4.17704e+135 -1.15576e+135 -4.87231e+135 -1.97657e+135 -5.93096e+135 -3.10748e+134 -1.16114e+135 -1.86309e+135 -2.34249e+134 -4.71067e+135 -4.232e+134 -5.21732e+134 -5.92944e+135 -6.29547e+135 -1.61203e+135 -2.39124e+134 -1.71455e+135 -4.93635e+135 -5.38314e+135 -1.16761e+135 -3.60346e+135 -3.34422e+134 -7.25251e+135 -8.12535e+134 -6.18699e+135 5.51168e+133 -1.63377e+135 -6.58273e+135 -2.19146e+134 -8.50464e+135 -2.63894e+134 -5.75604e+134 -1.30169e+135 -1.00967e+135 -6.94163e+135 -1.12074e+135 4.96958e+134 -4.18519e+134 -4.83296e+135 -4.71672e+135 -5.20043e+134 -6.62593e+134 -4.4215e+134 -6.63891e+135 -2.10749e+135 -7.03848e+135 -7.20358e+134 -2.49767e+135 -1.29372e+135 -6.44648e+135 -2.57192e+135 -6.01124e+135 -1.01258e+135 -2.96165e+134 -4.05887e+135 -4.80261e+135 -3.12278e+134 -1.96543e+134 7.12655e+132 -6.01721e+133 -2.68196e+135 -4.38727e+134 -3.72416e+134 -5.2029e+134 -6.37332e+135 -2.1674e+135 -5.18529e+135 -1.43474e+135 -6.04838e+135 -2.45367e+135 -7.36257e+135 -3.85756e+134 -1.44141e+135 -2.3128e+135 -2.90792e+134 -5.84773e+135 -5.25352e+134 -6.47667e+134 -7.36069e+135 -7.81506e+135 -2.00114e+135 -2.96844e+134 -2.12841e+135 -6.12788e+135 -6.68251e+135 -1.44945e+135 -4.47326e+135 -2.47101e+134 -5.3588e+135 -6.00373e+134 -4.5715e+135 4.07252e+133 -1.20717e+135 -4.86391e+135 -1.61925e+134 -6.28398e+135 -1.94988e+134 -4.25308e+134 -9.61806e+134 -7.46033e+134 -5.12909e+135 -8.28102e+134 3.67197e+134 -3.09239e+134 -3.57102e+135 -3.48513e+135 -3.84254e+134 -4.89583e+134 -3.267e+134 -4.90542e+135 -1.5572e+135 -5.20065e+135 -5.32265e+134 -1.8455e+135 -9.55913e+134 -4.76323e+135 -1.90036e+135 -4.44164e+135 -7.48186e+134 -2.18833e+134 -2.99905e+135 -3.5486e+135 -2.30738e+134 -1.45223e+134 5.26573e+132 -4.44605e+133 -1.98167e+135 -3.2417e+134 -2.75174e+134 -3.84437e+134 -4.70917e+135 -1.60146e+135 -3.83135e+135 -1.06011e+135 -4.46908e+135 -1.81299e+135 -5.44012e+135 -2.8503e+134 -1.06504e+135 -1.7089e+135 -2.14863e+134 -4.32082e+135 -3.88177e+134 -4.78554e+134 -5.43873e+135 -5.77446e+135 -1.47862e+135 -2.19335e+134 -1.57266e+135 -4.52782e+135 -4.93763e+135 -1.07098e+135 -3.30524e+135 0.415618 -0.0562058 0.267414 0.0959567 1.50755 -0.00594526 0.162478 0.513384 -1.4731 -0.381091 -0.362934 -0.556653 -0.746802 0.00556253 -0.444976 0.742165 -0.376822 -0.0330529 0.0953962 -0.215908 0.299096 0.272248 -0.116362 -0.554899 -0.0621187 0.343086 0.164836 -0.190496 -0.264888 0.438889 0.100176 -0.370269 1.49701 -1.02151 -0.177864 0.560792 -0.278024 1.17954 -0.333512 -0.143172 -0.409197 -0.407624 0.392153 0.107025 -0.171704 0.121934 -0.436818 -0.129323 -0.152556 0.0364529 0.411234 -0.372488 0.121906 0.595253 0.113144 -0.611441 -0.315571 -0.0809869 -1.16945 -0.16542 0.475295 -0.481361 0.151446 -1.50771 -0.257558 0.327232 -0.407496 -0.112058 -0.272225 -0.139991 -0.412551 -0.0719566 -0.277477 -0.171564 -0.189584 -0.0383165 0.0420058 0.100995 0.0938202 -0.159483 0.108695 0.0430573 0.173003 -0.115496 -0.487313 0.103432 -0.444465 -0.477103 -0.0533558 0.122228 -0.0982585 -0.601101 -0.112333 0.00473805 0.00834887 -0.235851 -0.323721 0.00174416 -0.258761 -0.0460459 -0.0542886 -0.578497 0.192478 0.181686 0.24789 -0.114345 0.111198 0.00395483 -0.469909 -0.159312 -0.0756238 -0.4772 0.138237 -0.0317943 -0.149789 -0.17824 -0.409704 0.0408319 -0.443433 -0.596689 -0.281284 0.0464395 -0.0978381 -0.0777179 -0.268269 -0.117338 -0.222598 0.131984 -0.454368 -0.136008 0.0321764 -0.0792507 -0.486854 -0.520095 -0.479966 -0.540281 0.247584 -0.246847 -0.686915 -0.217006 -0.353095 0.0652038 -0.105266 -0.0391705 -0.0911617 -0.594055 -0.106573 -0.298207 0.461082 -0.248262 -0.694487 0.42113 -0.519072 -0.435245 -0.327376 0.0700387 -0.487854 -0.502209 -0.382972 -0.19556 -0.225435 -0.552917 -0.627171 -0.0811345 -0.076098 -0.118401 -0.225005 -0.637207 0.515346 -0.108579 0.586913 0.0088352 -0.0958127 -0.0745728 -0.536071 -0.59508 0.0702004 -0.722607 -0.0902217 -0.12935 -0.0574837 -0.637667 -0.490624 -0.0959164 -0.362116 -0.654972 -0.569604 -0.0323914 0.076119 -0.525049 -0.282301 0.0552029 -0.225764 -0.0372961 -0.780719 -0.267155 -0.279445 -0.724805 0.106585 0.0185076 -0.274455 -0.175602 -0.00590881 -0.257341 -0.0250064 0.310621 -0.195402 -0.0722065 -0.150067 -0.167889 -0.200383 -0.0782382 -0.150853 -0.158358 0.191564 -0.090148 -0.126959 0.194636 0.0532922 -0.155522 0.0420168 -0.119562 0.0299294 -0.138927 -0.320316 -0.189153 0.237566 -0.360995 -0.047046 -0.105173 0.0605459 -0.185308 0.24903 0.0170481 0.215717 0.0199736 0.235344 -0.00248371 -0.166556 -0.134692 -0.0648023 -0.187254 0.036179 -0.14884 -0.17497 0.111902 -0.0790147 -0.0323231 0.105249 -0.197855 0.111775 0.0304239 0.028867 -0.187283 -0.0456749 -0.00701008 -0.153378 0.0018645 0.300769 -0.152366 -0.148678 -0.178519 -0.251351 -0.269969 0.773722 0.162658 0.617338 -0.174997 0.4714 -0.541688 0.37947 0.702828 -1.05821 -0.512141 -0.588533 -0.741796 -0.923919 0.0166164 -0.593775 0.694957 -0.17665 -0.222891 0.417078 -0.115691 0.716481 0.664106 0.0505262 -0.607199 0.181416 0.690966 -0.535512 -0.550286 0.400761 0.63783 0.316874 -0.507796 0.535585 -0.967457 0.559983 0.883741 -0.0997278 0.241933 -0.0751282 -0.227304 -0.642589 -0.580404 0.729238 -0.154801 -0.218854 0.362043 -0.663143 0.0610468 -0.326975 0.191517 0.779673 -0.757945 0.573237 0.906301 0.475801 -0.788216 -0.431201 0.0884518 -0.988662 -0.249796 0.670589 -0.636632 0.310251 -1.12085 -0.66047 -0.296481 -0.620459 -0.167957 -0.713607 -0.189943 -1.14462 0.093021 -0.357056 -0.556281 0.594137 0.368264 0.318151 0.405019 0.42084 -0.215037 0.408603 -0.873633 0.531601 -0.0448868 -0.542162 0.421943 -0.600676 -0.70573 -0.0506622 0.475684 -0.155339 -0.702817 -0.136985 0.221397 0.0271663 -0.74047 -0.365619 0.299276 -1.01378 0.414177 -0.0841892 -0.708459 0.533279 -0.92225 0.600602 0.109722 0.402615 0.33702 -0.669858 -0.219019 0.184055 -0.534173 0.413688 0.0359623 0.0723756 -0.244692 -0.632492 0.348716 -0.4666 -0.715325 -0.370759 